{"learner":{"attributes":{"scikit_learn":"{\"_estimator_type\": \"regressor\"}"},"feature_names":["Geolocation_Encoded","Commodity_Encoded","Commodity_Type_Encoded","Year","Month","Quarter","Price_Lag_1","Price_MA_3","Price_MA_6","Price_Std_3","CPI_Lag_1","CPI","Production_Volume_by_MetricTons","Area_Harvested_in_Hectares"],"feature_types":["int","int","int","int","int","int","float","float","float","float","float","float","float","float"],"gradient_booster":{"model":{"gbtree_model_param":{"num_parallel_tree":"1","num_trees":"200"},"iteration_indptr":[0,1,2,3,4,5,6,7,8,9,10,11,12,13,14,15,16,17,18,19,20,21,22,23,24,25,26,27,28,29,30,31,32,33,34,35,36,37,38,39,40,41,42,43,44,45,46,47,48,49,50,51,52,53,54,55,56,57,58,59,60,61,62,63,64,65,66,67,68,69,70,71,72,73,74,75,76,77,78,79,80,81,82,83,84,85,86,87,88,89,90,91,92,93,94,95,96,97,98,99,100,101,102,103,104,105,106,107,108,109,110,111,112,113,114,115,116,117,118,119,120,121,122,123,124,125,126,127,128,129,130,131,132,133,134,135,136,137,138,139,140,141,142,143,144,145,146,147,148,149,150,151,152,153,154,155,156,157,158,159,160,161,162,163,164,165,166,167,168,169,170,171,172,173,174,175,176,177,178,179,180,181,182,183,184,185,186,187,188,189,190,191,192,193,194,195,196,197,198,199,200],"tree_info":[0,0,0,0,0,0,0,0,0,0,0,0,0,0,0,0,0,0,0,0,0,0,0,0,0,0,0,0,0,0,0,0,0,0,0,0,0,0,0,0,0,0,0,0,0,0,0,0,0,0,0,0,0,0,0,0,0,0,0,0,0,0,0,0,0,0,0,0,0,0,0,0,0,0,0,0,0,0,0,0,0,0,0,0,0,0,0,0,0,0,0,0,0,0,0,0,0,0,0,0,0,0,0,0,0,0,0,0,0,0,0,0,0,0,0,0,0,0,0,0,0,0,0,0,0,0,0,0,0,0,0,0,0,0,0,0,0,0,0,0,0,0,0,0,0,0,0,0,0,0,0,0,0,0,0,0,0,0,0,0,0,0,0,0,0,0,0,0,0,0,0,0,0,0,0,0,0,0,0,0,0,0,0,0,0,0,0,0,0,0,0,0,0,0,0,0,0,0,0,0],"trees":[{"base_weights":[9.287556E-3,-1.4141626E1,9.845185E0,-1.845283E1,-7.448062E0,5.321201E0,2.193697E1,-2.152129E1,-1.6351933E1,-1.025885E1,-4.7754283E0,1.896904E0,8.97514E0,1.8859484E1,3.9808014E1,-2.3229105E0,-2.0066211E0,-1.7440847E0,-1.4679565E0,-1.1592444E0,-8.9048606E-1,-6.2357885E-1,-3.6721513E-1,-1.1994354E-3,3.4874952E-1,7.401816E-1,1.1186079E0,1.6602741E0,2.321161E0,3.2344587E0,4.733596E0],"categories":[],"categories_nodes":[],"categories_segments":[],"categories_sizes":[],"default_left":[0,0,0,0,0,0,0,0,0,0,0,0,0,0,0,0,0,0,0,0,0,0,0,0,0,0,0,0,0,0,0],"id":0,"left_children":[1,3,5,7,9,11,13,15,17,19,21,23,25,27,29,-1,-1,-1,-1,-1,-1,-1,-1,-1,-1,-1,-1,-1,-1,-1,-1],"loss_changes":[3.2471062E7,2.76041E6,7.528608E6,3.74738E5,2.814935E5,1.253177E6,2.060132E6,5.8289E4,6.2647E4,3.2879125E4,3.0932719E4,1.5699072E5,1.6846575E5,3.13602E5,3.07707E5,0E0,0E0,0E0,0E0,0E0,0E0,0E0,0E0,0E0,0E0,0E0,0E0,0E0,0E0,0E0,0E0],"parents":[2147483647,0,0,1,1,2,2,3,3,4,4,5,5,6,6,7,7,8,8,9,9,10,10,11,11,12,12,13,13,14,14],"right_children":[2,4,6,8,10,12,14,16,18,20,22,24,26,28,30,-1,-1,-1,-1,-1,-1,-1,-1,-1,-1,-1,-1,-1,-1,-1,-1],"split_conditions":[3.273E1,2.192E1,4.8633335E1,1.598E1,2.756E1,4.04E1,6.443E1,1.325E1,1.891E1,2.471E1,3E1,3.665E1,4.422E1,5.493E1,7.415E1,-2.3229105E0,-2.0066211E0,-1.7440847E0,-1.4679565E0,-1.1592444E0,-8.9048606E-1,-6.2357885E-1,-3.6721513E-1,-1.1994354E-3,3.4874952E-1,7.401816E-1,1.1186079E0,1.6602741E0,2.321161E0,3.2344587E0,4.733596E0],"split_indices":[7,7,7,7,7,7,7,7,7,7,7,7,7,7,7,0,0,0,0,0,0,0,0,0,0,0,0,0,0,0,0],"split_type":[0,0,0,0,0,0,0,0,0,0,0,0,0,0,0,0,0,0,0,0,0,0,0,0,0,0,0,0,0,0,0],"sum_hessian":[2.33289E5,9.5661E4,1.37628E5,5.8184E4,3.7477E4,1.00157E5,3.7471E4,2.3643E4,3.4541E4,1.8265E4,1.9212E4,5.1704E4,4.8453E4,3.1968E4,5.503E3,1.087E4,1.2773E4,2.0914E4,1.3627E4,9.198E3,9.067E3,8.266E3,1.0946E4,2.3501E4,2.8203E4,2.8311E4,2.0142E4,2.1055E4,1.0913E4,2.766E3,2.737E3],"tree_param":{"num_deleted":"0","num_feature":"14","num_nodes":"31","size_leaf_vector":"1"}},{"base_weights":[-1.4369159E-2,-1.2525098E1,8.987071E0,-1.6518112E1,-6.336052E0,5.1125226E0,2.0309544E1,-1.9201797E1,-1.4493622E1,-8.960602E0,-3.9716804E0,2.0097497E0,8.494532E0,1.7601574E1,3.7083054E1,-2.08012E0,-1.7836243E0,-1.5413728E0,-1.2798585E0,-9.9750006E-1,-7.428252E-1,-5.153577E-1,-2.793365E-1,4.7725424E-2,3.6550918E-1,7.32155E-1,1.1205935E0,1.5939196E0,2.2986166E0,2.9831755E0,4.2564864E0],"categories":[],"categories_nodes":[],"categories_segments":[],"categories_sizes":[],"default_left":[0,0,0,0,0,0,0,0,0,0,0,0,0,0,0,0,0,0,0,0,0,0,0,0,0,0,0,0,0,0,0],"id":1,"left_children":[1,3,5,7,9,11,13,15,17,19,21,23,25,27,29,-1,-1,-1,-1,-1,-1,-1,-1,-1,-1,-1,-1,-1,-1,-1,-1],"loss_changes":[2.633627E7,2.418205E6,5.966409E6,3.22882E5,2.381095E5,1.063321E6,1.57436E6,5.5482E4,5.2686E4,2.8196E4,2.8104531E4,1.3325592E5,1.5411775E5,2.66891E5,1.90286E5,0E0,0E0,0E0,0E0,0E0,0E0,0E0,0E0,0E0,0E0,0E0,0E0,0E0,0E0,0E0,0E0],"parents":[2147483647,0,0,1,1,2,2,3,3,4,4,5,5,6,6,7,7,8,8,9,9,10,10,11,11,12,12,13,13,14,14],"right_children":[2,4,6,8,10,12,14,16,18,20,22,24,26,28,30,-1,-1,-1,-1,-1,-1,-1,-1,-1,-1,-1,-1,-1,-1,-1,-1],"split_conditions":[3.328E1,2.225E1,4.94E1,1.633E1,2.786E1,4.092E1,6.614E1,1.36E1,1.946E1,2.539E1,3.059E1,3.736E1,4.536E1,5.668E1,7.415E1,-2.08012E0,-1.7836243E0,-1.5413728E0,-1.2798585E0,-9.9750006E-1,-7.428252E-1,-5.153577E-1,-2.793365E-1,4.7725424E-2,3.6550918E-1,7.32155E-1,1.1205935E0,1.5939196E0,2.2986166E0,2.9831755E0,4.2564864E0],"split_indices":[7,7,7,7,7,7,7,7,7,7,7,7,7,7,7,0,0,0,0,0,0,0,0,0,0,0,0,0,0,0,0],"split_type":[0,0,0,0,0,0,0,0,0,0,0,0,0,0,0,0,0,0,0,0,0,0,0,0,0,0,0,0,0,0,0],"sum_hessian":[2.3386E5,9.7855E4,1.36005E5,5.9479E4,3.8376E4,1.01331E5,3.4674E4,2.5572E4,3.3907E4,1.8186E4,2.019E4,5.2848E4,4.8483E4,2.9856E4,4.818E3,1.1771E4,1.3801E4,2.1972E4,1.1935E4,1.0939E4,7.247E3,1.0078E4,1.0112E4,2.7363E4,2.5485E4,3.3845E4,1.4638E4,2.2816E4,7.04E3,2.077E3,2.741E3],"tree_param":{"num_deleted":"0","num_feature":"14","num_nodes":"31","size_leaf_vector":"1"}},{"base_weights":[-1.2548319E-3,-1.1557461E1,7.9140744E0,-1.5091406E1,-6.343775E0,4.1210794E0,1.745746E1,-1.7718475E1,-1.3534229E1,-8.857825E0,-4.2683215E0,1.2614344E0,6.9160933E0,1.478808E1,3.115362E1,-1.9401541E0,-1.6821984E0,-1.4615349E0,-1.2410971E0,-9.984976E-1,-7.836745E-1,-5.4684746E-1,-3.1539816E-1,-4.0680293E-2,2.4021514E-1,5.52636E-1,8.57958E-1,1.2418572E0,1.7458203E0,2.5707214E0,3.8285713E0],"categories":[],"categories_nodes":[],"categories_segments":[],"categories_sizes":[],"default_left":[0,0,0,0,0,0,0,0,0,0,0,0,0,0,0,0,0,0,0,0,0,0,0,0,0,0,0,0,0,0,0],"id":2,"left_children":[1,3,5,7,9,11,13,15,17,19,21,23,25,27,29,-1,-1,-1,-1,-1,-1,-1,-1,-1,-1,-1,-1,-1,-1,-1,-1],"loss_changes":[2.139575E7,1.751833E6,5.025009E6,2.31591E5,2.0040375E5,7.939985E5,1.443011E6,3.14905E4,4.30325E4,1.991425E4,2.8127906E4,9.344522E4,1.16093E5,2.088485E5,2.491345E5,0E0,0E0,0E0,0E0,0E0,0E0,0E0,0E0,0E0,0E0,0E0,0E0,0E0,0E0,0E0,0E0],"parents":[2147483647,0,0,1,1,2,2,3,3,4,4,5,5,6,6,7,7,8,8,9,9,10,10,11,11,12,12,13,13,14,14],"right_children":[2,4,6,8,10,12,14,16,18,20,22,24,26,28,30,-1,-1,-1,-1,-1,-1,-1,-1,-1,-1,-1,-1,-1,-1,-1,-1],"split_conditions":[3.249E1,2.152E1,4.8E1,1.556E1,2.676E1,3.977E1,6.266E1,1.24E1,1.809E1,2.4E1,2.961E1,3.59E1,4.345E1,5.311E1,7.415E1,-1.9401541E0,-1.6821984E0,-1.4615349E0,-1.2410971E0,-9.984976E-1,-7.836745E-1,-5.4684746E-1,-3.1539816E-1,-4.0680293E-2,2.4021514E-1,5.52636E-1,8.57958E-1,1.2418572E0,1.7458203E0,2.5707214E0,3.8285713E0],"split_indices":[7,7,7,7,7,7,7,7,7,7,7,7,7,7,7,0,0,0,0,0,0,0,0,0,0,0,0,0,0,0,0],"split_type":[0,0,0,0,0,0,0,0,0,0,0,0,0,0,0,0,0,0,0,0,0,0,0,0,0,0,0,0,0,0,0],"sum_hessian":[2.33905E5,9.5084E4,1.38821E5,5.667E4,3.8414E4,9.934E4,3.9481E4,2.1086E4,3.5584E4,1.737E4,2.1044E4,4.9103E4,5.0237E4,3.3043E4,6.438E3,7.321E3,1.3765E4,1.8126E4,1.7458E4,8.252E3,9.118E3,1.013E4,1.0914E4,1.9941E4,2.9162E4,2.7373E4,2.2864E4,1.751E4,1.5533E4,3.653E3,2.785E3],"tree_param":{"num_deleted":"0","num_feature":"14","num_nodes":"31","size_leaf_vector":"1"}},{"base_weights":[-6.7137094E-4,-1.0005009E1,7.412239E0,-1.3270788E1,-4.7876086E0,4.449218E0,1.7210106E1,-1.5386791E1,-1.1449065E1,-6.85832E0,-2.892862E0,2.0276082E0,7.518313E0,1.51660385E1,3.234558E1,-1.6801071E0,-1.4219192E0,-1.2249998E0,-1.0024742E0,-7.7153665E-1,-5.580688E-1,-3.772324E-1,-1.8869404E-1,7.299807E-2,3.5502177E-1,6.4135605E-1,9.656972E-1,1.3756384E0,2.0856502E0,2.7747083E0,3.651711E0],"categories":[],"categories_nodes":[],"categories_segments":[],"categories_sizes":[],"default_left":[0,0,0,0,0,0,0,0,0,0,0,0,0,0,0,0,0,0,0,0,0,0,0,0,0,0,0,0,0,0,0],"id":3,"left_children":[1,3,5,7,9,11,13,15,17,19,21,23,25,27,29,-1,-1,-1,-1,-1,-1,-1,-1,-1,-1,-1,-1,-1,-1,-1,-1],"loss_changes":[1.7314502E7,1.693038E6,3.8931355E6,2.354E5,1.5007262E5,7.65251E5,9.62854E5,4.6444E4,3.73455E4,1.9971188E4,1.7666812E4,1.1371539E5,1.072325E5,2.197855E5,7.00395E4,0E0,0E0,0E0,0E0,0E0,0E0,0E0,0E0,0E0,0E0,0E0,0E0,0E0,0E0,0E0,0E0],"parents":[2147483647,0,0,1,1,2,2,3,3,4,4,5,5,6,6,7,7,8,8,9,9,10,10,11,11,12,12,13,13,14,14],"right_children":[2,4,6,8,10,12,14,16,18,20,22,24,26,28,30,-1,-1,-1,-1,-1,-1,-1,-1,-1,-1,-1,-1,-1,-1,-1,-1],"split_conditions":[3.369E1,2.28E1,5.016E1,1.679E1,2.836E1,4.175E1,6.783E1,1.4E1,1.968E1,2.61E1,3.113E1,3.807E1,4.608E1,5.892E1,7.983E1,-1.6801071E0,-1.4219192E0,-1.2249998E0,-1.0024742E0,-7.7153665E-1,-5.580688E-1,-3.772324E-1,-1.8869404E-1,7.299807E-2,3.5502177E-1,6.4135605E-1,9.656972E-1,1.3756384E0,2.0856502E0,2.7747083E0,3.651711E0],"split_indices":[7,7,7,7,7,7,7,7,7,7,7,7,7,7,7,0,0,0,0,0,0,0,0,0,0,0,0,0,0,0,0],"split_type":[0,0,0,0,0,0,0,0,0,0,0,0,0,0,0,0,0,0,0,0,0,0,0,0,0,0,0,0,0,0,0],"sum_hessian":[2.33469E5,9.9366E4,1.34103E5,6.1112E4,3.8254E4,1.02966E5,3.1137E4,2.8269E4,3.2843E4,1.8277E4,1.9977E4,5.7555E4,4.5411E4,2.7434E4,3.703E3,1.2778E4,1.5491E4,2.1017E4,1.1826E4,1.0936E4,7.341E3,1.0657E4,9.32E3,3.1074E4,2.6481E4,2.9946E4,1.5465E4,2.199E4,5.444E3,1.765E3,1.938E3],"tree_param":{"num_deleted":"0","num_feature":"14","num_nodes":"31","size_leaf_vector":"1"}},{"base_weights":[3.086317E-3,-8.939116E0,6.721613E0,-1.188539E1,-4.1463413E0,4.1482725E0,1.5845604E1,-1.3679962E1,-1.0089568E1,-5.8984156E0,-2.3858619E0,1.9826299E0,7.0317583E0,1.3601167E1,2.7102713E1,-1.502644E0,-1.2614211E0,-1.077338E0,-8.736847E-1,-6.8217325E-1,-4.876804E-1,-3.132298E-1,-1.5506507E-1,8.115395E-2,3.4360227E-1,5.956828E-1,8.880728E-1,1.2349939E0,1.7329848E0,2.3369699E0,3.275275E0],"categories":[],"categories_nodes":[],"categories_segments":[],"categories_sizes":[],"default_left":[0,0,0,0,0,0,0,0,0,0,0,0,0,0,0,0,0,0,0,0,0,0,0,0,0,0,0,0,0,0,0],"id":4,"left_children":[1,3,5,7,9,11,13,15,17,19,21,23,25,27,29,-1,-1,-1,-1,-1,-1,-1,-1,-1,-1,-1,-1,-1,-1,-1,-1],"loss_changes":[1.404321E7,1.415974E6,3.133671E6,2E5,1.17745625E5,6.50099E5,7.414875E5,4.438E4,2.862175E4,1.8015312E4,1.1868398E4,1.0119455E5,8.86955E4,1.140095E5,1.0216175E5,0E0,0E0,0E0,0E0,0E0,0E0,0E0,0E0,0E0,0E0,0E0,0E0,0E0,0E0,0E0,0E0],"parents":[2147483647,0,0,1,1,2,2,3,3,4,4,5,5,6,6,7,7,8,8,9,9,10,10,11,11,12,12,13,13,14,14],"right_children":[2,4,6,8,10,12,14,16,18,20,22,24,26,28,30,-1,-1,-1,-1,-1,-1,-1,-1,-1,-1,-1,-1,-1,-1,-1,-1],"split_conditions":[3.387E1,2.296E1,5.078E1,1.714E1,2.886E1,4.213E1,6.614E1,1.421E1,2.02E1,2.61E1,3.147E1,3.84E1,4.64E1,5.75E1,7.983E1,-1.502644E0,-1.2614211E0,-1.077338E0,-8.736847E-1,-6.8217325E-1,-4.876804E-1,-3.132298E-1,-1.5506507E-1,8.115395E-2,3.4360227E-1,5.956828E-1,8.880728E-1,1.2349939E0,1.7329848E0,2.3369699E0,3.275275E0],"split_indices":[7,7,7,7,7,7,7,7,7,7,7,7,7,7,7,0,0,0,0,0,0,0,0,0,0,0,0,0,0,0,0],"split_type":[0,0,0,0,0,0,0,0,0,0,0,0,0,0,0,0,0,0,0,0,0,0,0,0,0,0,0,0,0,0,0],"sum_hessian":[2.33746E5,1.00278E5,1.33468E5,6.2101E4,3.8177E4,1.04107E5,2.9361E4,3.1058E4,3.1043E4,1.9133E4,1.9044E4,5.9455E4,4.4652E4,2.4482E4,4.879E3,1.3716E4,1.7342E4,2.0615E4,1.0428E4,1.0047E4,9.086E3,1.0055E4,8.989E3,3.2926E4,2.6529E4,2.8239E4,1.6413E4,1.8334E4,6.148E3,2.941E3,1.938E3],"tree_param":{"num_deleted":"0","num_feature":"14","num_nodes":"31","size_leaf_vector":"1"}},{"base_weights":[-1.1287663E-3,-7.909276E0,6.1492515E0,-1.0663386E1,-3.5416315E0,3.9195678E0,1.4595438E1,-1.2362783E1,-9.0834055E0,-5.192075E0,-1.98961E0,1.9791023E0,6.580079E0,1.2796916E1,2.6239964E1,-1.402717E0,-1.1645521E0,-9.673409E-1,-7.6911956E-1,-6.0676944E-1,-4.343457E-1,-2.700589E-1,-1.2644075E-1,9.263477E-2,3.311784E-1,5.54028E-1,8.1675625E-1,1.1691306E0,1.7458496E0,2.4044003E0,3.2742417E0],"categories":[],"categories_nodes":[],"categories_segments":[],"categories_sizes":[],"default_left":[0,0,0,0,0,0,0,0,0,0,0,0,0,0,0,0,0,0,0,0,0,0,0,0,0,0,0,0,0,0,0],"id":5,"left_children":[1,3,5,7,9,11,13,15,17,19,21,23,25,27,29,-1,-1,-1,-1,-1,-1,-1,-1,-1,-1,-1,-1,-1,-1,-1,-1],"loss_changes":[1.1362836E7,1.229383E6,2.474793E6,1.68185E5,1.0123647E5,5.367456E5,5.74464E5,3.58845E4,2.6609E4,1.4207125E4,1.0500461E4,8.434731E4,7.2334625E4,1.2233475E5,5.163125E4,0E0,0E0,0E0,0E0,0E0,0E0,0E0,0E0,0E0,0E0,0E0,0E0,0E0,0E0,0E0,0E0],"parents":[2147483647,0,0,1,1,2,2,3,3,4,4,5,5,6,6,7,7,8,8,9,9,10,10,11,11,12,12,13,13,14,14],"right_children":[2,4,6,8,10,12,14,16,18,20,22,24,26,28,30,-1,-1,-1,-1,-1,-1,-1,-1,-1,-1,-1,-1,-1,-1,-1,-1],"split_conditions":[3.425E1,2.32E1,5.134E1,1.701E1,2.9E1,4.246E1,6.783E1,1.284E1,2.043E1,2.61E1,3.174E1,3.867E1,4.671E1,6.015E1,8.321E1,-1.402717E0,-1.1645521E0,-9.673409E-1,-7.6911956E-1,-6.0676944E-1,-4.343457E-1,-2.700589E-1,-1.2644075E-1,9.263477E-2,3.311784E-1,5.54028E-1,8.1675625E-1,1.1691306E0,1.7458496E0,2.4044003E0,3.2742417E0],"split_indices":[7,7,7,7,7,7,7,7,7,7,7,7,7,7,7,0,0,0,0,0,0,0,0,0,0,0,0,0,0,0,0],"split_type":[0,0,0,0,0,0,0,0,0,0,0,0,0,0,0,0,0,0,0,0,0,0,0,0,0,0,0,0,0,0,0],"sum_hessian":[2.33618E5,1.02204E5,1.31414E5,6.2679E4,3.9525E4,1.03969E5,2.7445E4,3.0195E4,3.2484E4,1.9154E4,2.0371E4,6.0121E4,4.3848E4,2.3775E4,3.67E3,9.088E3,2.1107E4,2.2811E4,9.673E3,9.424E3,9.73E3,1.0285E4,1.0086E4,3.3589E4,2.6532E4,2.6497E4,1.7351E4,1.922E4,4.555E3,2.747E3,9.23E2],"tree_param":{"num_deleted":"0","num_feature":"14","num_nodes":"31","size_leaf_vector":"1"}},{"base_weights":[2.4033203E-3,-7.0186725E0,5.618387E0,-9.534363E0,-2.9978023E0,3.6747272E0,1.3507662E1,-1.0971766E1,-7.9305897E0,-4.4757333E0,-1.6422675E0,1.9386787E0,6.1569285E0,1.1796273E1,2.3661242E1,-1.2100464E0,-1.0017517E0,-8.5028297E-1,-6.778807E-1,-5.264661E-1,-3.75818E-1,-2.3342977E-1,-1.0940506E-1,9.937642E-2,3.1803057E-1,5.1508814E-1,7.508098E-1,1.0632015E0,1.5293485E0,2.1697054E0,2.9575078E0],"categories":[],"categories_nodes":[],"categories_segments":[],"categories_sizes":[],"default_left":[0,0,0,0,0,0,0,0,0,0,0,0,0,0,0,0,0,0,0,0,0,0,0,0,0,0,0,0,0,0,0],"id":6,"left_children":[1,3,5,7,9,11,13,15,17,19,21,23,25,27,29,-1,-1,-1,-1,-1,-1,-1,-1,-1,-1,-1,-1,-1,-1,-1,-1],"loss_changes":[9.205031E6,1.049399E6,1.98884E6,1.47031E5,7.998791E4,4.4843575E5,4.452255E5,3.6124E4,1.9825375E4,1.0793781E4,7.8996055E3,7.184434E4,5.81805E4,8.917775E4,4.2302375E4,0E0,0E0,0E0,0E0,0E0,0E0,0E0,0E0,0E0,0E0,0E0,0E0,0E0,0E0,0E0,0E0],"parents":[2147483647,0,0,1,1,2,2,3,3,4,4,5,5,6,6,7,7,8,8,9,9,10,10,11,11,12,12,13,13,14,14],"right_children":[2,4,6,8,10,12,14,16,18,20,22,24,26,28,30,-1,-1,-1,-1,-1,-1,-1,-1,-1,-1,-1,-1,-1,-1,-1,-1],"split_conditions":[3.45E1,2.356E1,5.183E1,1.746E1,2.925E1,4.278E1,6.783E1,1.46E1,2.069E1,2.662E1,3.174E1,3.899E1,4.699E1,5.892E1,8.321E1,-1.2100464E0,-1.0017517E0,-8.5028297E-1,-6.778807E-1,-5.264661E-1,-3.75818E-1,-2.3342977E-1,-1.0940506E-1,9.937642E-2,3.1803057E-1,5.1508814E-1,7.508098E-1,1.0632015E0,1.5293485E0,2.1697054E0,2.9575078E0],"split_indices":[7,7,7,7,7,7,7,7,7,7,7,7,7,7,7,0,0,0,0,0,0,0,0,0,0,0,0,0,0,0,0],"split_type":[0,0,0,0,0,0,0,0,0,0,0,0,0,0,0,0,0,0,0,0,0,0,0,0,0,0,0,0,0,0,0],"sum_hessian":[2.33449E5,1.03746E5,1.29703E5,6.3817E4,3.9929E4,1.04066E5,2.5637E4,3.3651E4,3.0166E4,1.9101E4,2.0828E4,6.1238E4,4.2828E4,2.1941E4,3.696E3,1.5411E4,1.824E4,2.0149E4,1.0017E4,9.095E3,1.0006E4,9.205E3,1.1623E4,3.4775E4,2.6463E4,2.4552E4,1.8276E4,1.6464E4,5.477E3,2.778E3,9.18E2],"tree_param":{"num_deleted":"0","num_feature":"14","num_nodes":"31","size_leaf_vector":"1"}},{"base_weights":[-5.9089954E-3,-6.2397914E0,5.10983E0,-8.577429E0,-2.6291335E0,3.4441793E0,1.2480395E1,-9.79889E0,-7.039419E0,-4.035762E0,-1.4328685E0,1.8853437E0,5.7632484E0,1.1103084E1,2.2996777E1,-1.0938472E0,-9.006092E-1,-7.522394E-1,-6.023239E-1,-4.637424E-1,-3.2548815E-1,-2.0576759E-1,-9.0929404E-2,1.0360634E-1,3.0441323E-1,4.8391914E-1,6.963231E-1,9.905099E-1,1.4512538E0,2.1234493E0,2.649613E0],"categories":[],"categories_nodes":[],"categories_segments":[],"categories_sizes":[],"default_left":[0,0,0,0,0,0,0,0,0,0,0,0,0,0,0,0,0,0,0,0,0,0,0,0,0,0,0,0,0,0,0],"id":7,"left_children":[1,3,5,7,9,11,13,15,17,19,21,23,25,27,29,-1,-1,-1,-1,-1,-1,-1,-1,-1,-1,-1,-1,-1,-1,-1,-1],"loss_changes":[7.442E6,8.877735E5,1.5735218E6,1.198755E5,6.955372E4,3.7793875E5,3.4195125E5,3.204925E4,1.3826875E4,8.910656E3,7.3066133E3,6.152897E4,4.6566875E4,8.518925E4,1.630375E4,0E0,0E0,0E0,0E0,0E0,0E0,0E0,0E0,0E0,0E0,0E0,0E0,0E0,0E0,0E0,0E0],"parents":[2147483647,0,0,1,1,2,2,3,3,4,4,5,5,6,6,7,7,8,8,9,9,10,10,11,11,12,12,13,13,14,14],"right_children":[2,4,6,8,10,12,14,16,18,20,22,24,26,28,30,-1,-1,-1,-1,-1,-1,-1,-1,-1,-1,-1,-1,-1,-1,-1,-1],"split_conditions":[3.475E1,2.356E1,5.224E1,1.768E1,2.925E1,4.305E1,7.415E1,1.444E1,2.094E1,2.7E1,3.195E1,3.933E1,4.739E1,6.015E1,8.321E1,-1.0938472E0,-9.006092E-1,-7.522394E-1,-6.023239E-1,-4.637424E-1,-3.2548815E-1,-2.0576759E-1,-9.0929404E-2,1.0360634E-1,3.0441323E-1,4.8391914E-1,6.963231E-1,9.905099E-1,1.4512538E0,2.1234493E0,2.649613E0],"split_indices":[7,7,7,7,7,7,7,7,7,7,7,7,7,7,7,0,0,0,0,0,0,0,0,0,0,0,0,0,0,0,0],"split_type":[0,0,0,0,0,0,0,0,0,0,0,0,0,0,0,0,0,0,0,0,0,0,0,0,0,0,0,0,0,0,0],"sum_hessian":[2.33356E5,1.05183E5,1.28173E5,6.3846E4,4.1337E4,1.04548E5,2.3625E4,3.5582E4,2.8264E4,1.8997E4,2.234E4,6.2523E4,4.2025E4,2.0891E4,2.734E3,1.4593E4,2.0989E4,1.9154E4,9.11E3,1.0727E4,8.27E3,1.0184E4,1.2156E4,3.6081E4,2.6442E4,2.3745E4,1.828E4,1.5462E4,5.429E3,1.823E3,9.11E2],"tree_param":{"num_deleted":"0","num_feature":"14","num_nodes":"31","size_leaf_vector":"1"}},{"base_weights":[-1.3555528E-4,-5.513011E0,4.6937566E0,-7.6850247E0,-2.2110753E0,3.174078E0,1.1240039E1,-9.200947E0,-6.64208E0,-3.3979056E0,-1.0753126E0,1.920984E0,5.42362E0,9.995734E0,2.0725761E1,-1.091489E0,-8.751815E-1,-7.406716E-1,-5.8157223E-1,-4.0323907E-1,-2.705937E-1,-1.6157995E-1,-7.413992E-2,1.0708567E-1,2.927112E-1,4.6288067E-1,6.306247E-1,9.0154374E-1,1.3428935E0,1.9082482E0,2.387359E0],"categories":[],"categories_nodes":[],"categories_segments":[],"categories_sizes":[],"default_left":[0,0,0,0,0,0,0,0,0,0,0,0,0,0,0,0,0,0,0,0,0,0,0,0,0,0,0,0,0,0,0],"id":8,"left_children":[1,3,5,7,9,11,13,15,17,19,21,23,25,27,29,-1,-1,-1,-1,-1,-1,-1,-1,-1,-1,-1,-1,-1,-1,-1,-1],"loss_changes":[6.056475E6,7.71925E5,1.257572E6,1.025885E5,5.7567625E4,2.892047E5,2.809075E5,2.0273E4,2.426275E4,9.1585E3,3.9378672E3,5.635928E4,2.572025E4,7.074775E4,1.3826375E4,0E0,0E0,0E0,0E0,0E0,0E0,0E0,0E0,0E0,0E0,0E0,0E0,0E0,0E0,0E0,0E0],"parents":[2147483647,0,0,1,1,2,2,3,3,4,4,5,5,6,6,7,7,8,8,9,9,10,10,11,11,12,12,13,13,14,14],"right_children":[2,4,6,8,10,12,14,16,18,20,22,24,26,28,30,-1,-1,-1,-1,-1,-1,-1,-1,-1,-1,-1,-1,-1,-1,-1,-1],"split_conditions":[3.5E1,2.4E1,5.224E1,1.647E1,3.02E1,4.375E1,7.415E1,1.192E1,1.92E1,2.725E1,3.225E1,3.96E1,4.76E1,6.167E1,8.321E1,-1.091489E0,-8.751815E-1,-7.406716E-1,-5.8157223E-1,-4.0323907E-1,-2.705937E-1,-1.6157995E-1,-7.413992E-2,1.0708567E-1,2.927112E-1,4.6288067E-1,6.306247E-1,9.0154374E-1,1.3428935E0,1.9082482E0,2.387359E0],"split_indices":[7,7,7,7,7,7,7,7,7,7,7,7,7,7,7,0,0,0,0,0,0,0,0,0,0,0,0,0,0,0,0],"split_type":[0,0,0,0,0,0,0,0,0,0,0,0,0,0,0,0,0,0,0,0,0,0,0,0,0,0,0,0,0,0,0],"sum_hessian":[2.34048E5,1.07634E5,1.26414E5,6.4925E4,4.2709E4,1.02598E5,2.3816E4,2.6459E4,3.8466E4,2.0884E4,2.1825E4,6.5894E4,3.6704E4,2.1056E4,2.76E3,5.489E3,2.097E4,1.9975E4,1.8491E4,1.0892E4,9.992E3,8.333E3,1.3492E4,3.5717E4,3.0177E4,1.9316E4,1.7388E4,1.6382E4,4.674E3,1.818E3,9.42E2],"tree_param":{"num_deleted":"0","num_feature":"14","num_nodes":"31","size_leaf_vector":"1"}},{"base_weights":[-2.8056856E-3,-4.881578E0,4.296277E0,-6.952307E0,-1.9700238E0,3.0480664E0,1.0753966E1,-8.502148E0,-6.141789E0,-3.2682116E0,-1.0435102E0,1.8395196E0,5.12448E0,9.495208E0,1.859564E1,-1.0254045E0,-8.1583023E-1,-6.879719E-1,-5.4075944E-1,-3.9982808E-1,-2.8117087E-1,-1.7619717E-1,-7.131942E-2,1.1015439E-1,2.7628726E-1,4.4611165E-1,6.0997796E-1,8.552351E-1,1.2096326E0,1.712017E0,2.1453416E0],"categories":[],"categories_nodes":[],"categories_segments":[],"categories_sizes":[],"default_left":[0,0,0,0,0,0,0,0,0,0,0,0,0,0,0,0,0,0,0,0,0,0,0,0,0,0,0,0,0,0,0],"id":9,"left_children":[1,3,5,7,9,11,13,15,17,19,21,23,25,27,29,-1,-1,-1,-1,-1,-1,-1,-1,-1,-1,-1,-1,-1,-1,-1,-1],"loss_changes":[4.9047015E6,6.603895E5,1.001951E6,8.035675E4,5.4755938E4,2.6140675E5,1.9857125E5,1.31555E4,2.2736125E4,6.3077188E3,6.3038438E3,4.486728E4,2.476825E4,4.2452E4,1.1371625E4,0E0,0E0,0E0,0E0,0E0,0E0,0E0,0E0,0E0,0E0,0E0,0E0,0E0,0E0,0E0,0E0],"parents":[2147483647,0,0,1,1,2,2,3,3,4,4,5,5,6,6,7,7,8,8,9,9,10,10,11,11,12,12,13,13,14,14],"right_children":[2,4,6,8,10,12,14,16,18,20,22,24,26,28,30,-1,-1,-1,-1,-1,-1,-1,-1,-1,-1,-1,-1,-1,-1,-1,-1],"split_conditions":[3.529E1,2.356E1,5.358E1,1.569E1,2.925E1,4.406E1,7.397E1,1.132E1,1.862E1,2.558E1,3.144E1,4.013E1,4.909E1,6.167E1,8.321E1,-1.0254045E0,-8.1583023E-1,-6.879719E-1,-5.4075944E-1,-3.9982808E-1,-2.8117087E-1,-1.7619717E-1,-7.131942E-2,1.1015439E-1,2.7628726E-1,4.4611165E-1,6.0997796E-1,8.552351E-1,1.2096326E0,1.712017E0,2.1453416E0],"split_indices":[6,6,6,6,6,6,8,6,6,6,8,6,6,8,8,0,0,0,0,0,0,0,0,0,0,0,0,0,0,0,0],"split_type":[0,0,0,0,0,0,0,0,0,0,0,0,0,0,0,0,0,0,0,0,0,0,0,0,0,0,0,0,0,0,0],"sum_hessian":[2.33842E5,1.09536E5,1.24306E5,6.401E4,4.5526E4,1.04172E5,2.0134E4,2.1977E4,4.2033E4,1.8959E4,2.6567E4,6.5848E4,3.8324E4,1.7351E4,2.783E3,3.601E3,1.8376E4,2.0959E4,2.1074E4,7.291E3,1.1668E4,8.366E3,1.8201E4,3.6599E4,2.9249E4,2.2813E4,1.5511E4,1.2738E4,4.613E3,1.84E3,9.43E2],"tree_param":{"num_deleted":"0","num_feature":"14","num_nodes":"31","size_leaf_vector":"1"}},{"base_weights":[7.7329227E-4,-4.4286985E0,3.8304796E0,-6.3899984E0,-1.9780003E0,2.451207E0,8.562311E0,-7.807281E0,-5.728289E0,-3.2746778E0,-1.0669636E0,1.2896688E0,3.8086393E0,7.223824E0,1.4133256E1,-9.234172E-1,-7.470047E-1,-6.2690926E-1,-5.054459E-1,-3.8504246E-1,-2.7884123E-1,-1.7558895E-1,-6.9351494E-2,4.431339E-2,1.7883666E-1,3.1413293E-1,4.698814E-1,6.283075E-1,8.8639987E-1,1.1493323E0,1.6775745E0],"categories":[],"categories_nodes":[],"categories_segments":[],"categories_sizes":[],"default_left":[0,0,0,0,0,0,0,0,0,0,0,0,0,0,0,0,0,0,0,0,0,0,0,0,0,0,0,0,0,0,0],"id":10,"left_children":[1,3,5,7,9,11,13,15,17,19,21,23,25,27,29,-1,-1,-1,-1,-1,-1,-1,-1,-1,-1,-1,-1,-1,-1,-1,-1],"loss_changes":[3.9616228E6,5.2048425E5,8.174084E5,5.63655E4,5.6865297E4,1.5290594E5,2.1068212E5,9.14225E3,1.4912375E4,5.550797E3,7.27359E3,2.2062828E4,2.6549312E4,3.511525E4,3.800075E4,0E0,0E0,0E0,0E0,0E0,0E0,0E0,0E0,0E0,0E0,0E0,0E0,0E0,0E0,0E0,0E0],"parents":[2147483647,0,0,1,1,2,2,3,3,4,4,5,5,6,6,7,7,8,8,9,9,10,10,11,11,12,12,13,13,14,14],"right_children":[2,4,6,8,10,12,14,16,18,20,22,24,26,28,30,-1,-1,-1,-1,-1,-1,-1,-1,-1,-1,-1,-1,-1,-1,-1,-1],"split_conditions":[3.509E1,2.257E1,5.108E1,1.528E1,2.86E1,4.225E1,6.443E1,1.136E1,1.849E1,2.504E1,3.113E1,3.771E1,4.572E1,5.593E1,7.415E1,-9.234172E-1,-7.470047E-1,-6.2690926E-1,-5.054459E-1,-3.8504246E-1,-2.7884123E-1,-1.7558895E-1,-6.9351494E-2,4.431339E-2,1.7883666E-1,3.1413293E-1,4.698814E-1,6.283075E-1,8.8639987E-1,1.1493323E0,1.6775745E0],"split_indices":[7,7,7,7,7,7,7,7,7,7,7,7,7,7,7,0,0,0,0,0,0,0,0,0,0,0,0,0,0,0,0],"split_type":[0,0,0,0,0,0,0,0,0,0,0,0,0,0,0,0,0,0,0,0,0,0,0,0,0,0,0,0,0,0,0],"sum_hessian":[2.33535E5,1.08288E5,1.25247E5,6.0149E4,4.8139E4,9.698E4,2.8267E4,1.9141E4,4.1008E4,1.9864E4,2.8275E4,5.2262E4,4.4718E4,2.2793E4,5.474E3,3.654E3,1.5487E4,2.2745E4,1.8263E4,9.092E3,1.0772E4,9.938E3,1.8337E4,1.9375E4,3.2887E4,2.5561E4,1.9157E4,1.4488E4,8.305E3,2.741E3,2.733E3],"tree_param":{"num_deleted":"0","num_feature":"14","num_nodes":"31","size_leaf_vector":"1"}},{"base_weights":[5.1073893E-3,-4.2395034E0,3.2472963E0,-5.8414087E0,-2.136091E0,1.9307343E0,7.3768535E0,-7.070892E0,-5.2688594E0,-3.1403036E0,-1.2125279E0,8.015354E-1,3.1377642E0,6.1513286E0,1.2257159E1,-8.545949E-1,-6.806826E-1,-5.698903E-1,-4.7240016E-1,-3.5958934E-1,-2.6510632E-1,-1.7010693E-1,-8.325242E-2,3.0550518E-4,1.343035E-1,2.5008443E-1,3.906104E-1,5.4142046E-1,7.695424E-1,1.0616382E0,1.6047081E0],"categories":[],"categories_nodes":[],"categories_segments":[],"categories_sizes":[],"default_left":[0,0,0,0,0,0,0,0,0,0,0,0,0,0,0,0,0,0,0,0,0,0,0,0,0,0,0,0,0,0,0],"id":11,"left_children":[1,3,5,7,9,11,13,15,17,19,21,23,25,27,29,-1,-1,-1,-1,-1,-1,-1,-1,-1,-1,-1,-1,-1,-1,-1,-1],"loss_changes":[3.207759E6,3.4010475E5,7.1846125E5,4.029925E4,4.047122E4,1.3657456E5,1.9099162E5,7.0320625E3,9.134375E3,4.6504844E3,4.2192812E3,2.2385438E4,2.3691906E4,2.9023062E4,3.9695938E4,0E0,0E0,0E0,0E0,0E0,0E0,0E0,0E0,0E0,0E0,0E0,0E0,0E0,0E0,0E0,0E0],"parents":[2147483647,0,0,1,1,2,2,3,3,4,4,5,5,6,6,7,7,8,8,9,9,10,10,11,11,12,12,13,13,14,14],"right_children":[2,4,6,8,10,12,14,16,18,20,22,24,26,28,30,-1,-1,-1,-1,-1,-1,-1,-1,-1,-1,-1,-1,-1,-1,-1,-1],"split_conditions":[3.408E1,2.171E1,5.001E1,1.509E1,2.82E1,4.127E1,6.266E1,1.095E1,1.825E1,2.486E1,3.075E1,3.702E1,4.49E1,5.547E1,7.983E1,-8.545949E-1,-6.806826E-1,-5.698903E-1,-4.7240016E-1,-3.5958934E-1,-2.6510632E-1,-1.7010693E-1,-8.325242E-2,3.0550518E-4,1.343035E-1,2.5008443E-1,3.906104E-1,5.4142046E-1,7.695424E-1,1.0616382E0,1.6047081E0],"split_indices":[6,6,6,6,6,6,8,6,8,8,8,6,6,6,8,0,0,0,0,0,0,0,0,0,0,0,0,0,0,0,0],"split_type":[0,0,0,0,0,0,0,0,0,0,0,0,0,0,0,0,0,0,0,0,0,0,0,0,0,0,0,0,0,0,0],"sum_hessian":[2.33089E5,1.0094E5,1.32149E5,5.73E4,4.364E4,1.00204E5,3.1945E4,1.8202E4,3.9098E4,2.0906E4,2.2734E4,5.1772E4,4.8432E4,2.5535E4,6.41E3,2.759E3,1.5443E4,2.1846E4,1.7252E4,1.0822E4,1.0084E4,9.945E3,1.2789E4,2.0922E4,3.085E4,2.6483E4,2.1949E4,1.7287E4,8.248E3,4.476E3,1.934E3],"tree_param":{"num_deleted":"0","num_feature":"14","num_nodes":"31","size_leaf_vector":"1"}},{"base_weights":[1.9426928E-3,-3.5363162E0,3.1625578E0,-5.108458E0,-1.4666587E0,2.268978E0,8.012504E0,-6.118523E0,-4.450076E0,-2.3915987E0,-7.164328E-1,1.409373E0,3.8577495E0,7.0604773E0,1.36398735E1,-7.138592E-1,-5.759732E-1,-4.81433E-1,-3.7048125E-1,-2.8715128E-1,-1.9387169E-1,-1.14677384E-1,-4.526502E-2,8.0580816E-2,2.0461944E-1,3.271676E-1,4.3849087E-1,6.2734103E-1,8.640526E-1,1.2426999E0,1.5998213E0],"categories":[],"categories_nodes":[],"categories_segments":[],"categories_sizes":[],"default_left":[0,0,0,0,0,0,0,0,0,0,0,0,0,0,0,0,0,0,0,0,0,0,0,0,0,0,0,0,0,0,0],"id":12,"left_children":[1,3,5,7,9,11,13,15,17,19,21,23,25,27,29,-1,-1,-1,-1,-1,-1,-1,-1,-1,-1,-1,-1,-1,-1,-1,-1],"loss_changes":[2.6137528E6,3.588015E5,5.3499125E5,4.1648125E4,3.303275E4,1.4236362E5,1.02798E5,9.0088125E3,1.0282375E4,4.6282188E3,2.9834893E3,2.5999344E4,1.12930625E4,2.0377E4,7.7472812E3,0E0,0E0,0E0,0E0,0E0,0E0,0E0,0E0,0E0,0E0,0E0,0E0,0E0,0E0,0E0,0E0],"parents":[2147483647,0,0,1,1,2,2,3,3,4,4,5,5,6,6,7,7,8,8,9,9,10,10,11,11,12,12,13,13,14,14],"right_children":[2,4,6,8,10,12,14,16,18,20,22,24,26,28,30,-1,-1,-1,-1,-1,-1,-1,-1,-1,-1,-1,-1,-1,-1,-1,-1],"split_conditions":[3.543E1,2.32E1,5.386E1,1.617E1,2.961E1,4.46E1,7.415E1,1.215E1,1.998E1,2.662E1,3.225E1,3.995E1,4.833E1,6.015E1,8.321E1,-7.138592E-1,-5.759732E-1,-4.81433E-1,-3.7048125E-1,-2.8715128E-1,-1.9387169E-1,-1.14677384E-1,-4.526502E-2,8.0580816E-2,2.0461944E-1,3.271676E-1,4.3849087E-1,6.2734103E-1,8.640526E-1,1.2426999E0,1.5998213E0],"split_indices":[7,7,7,7,7,7,7,7,7,7,7,7,7,7,7,0,0,0,0,0,0,0,0,0,0,0,0,0,0,0,0],"split_type":[0,0,0,0,0,0,0,0,0,0,0,0,0,0,0,0,0,0,0,0,0,0,0,0,0,0,0,0,0,0,0],"sum_hessian":[2.33722E5,1.10273E5,1.23449E5,6.2668E4,4.7605E4,1.04244E5,1.9205E4,2.4726E4,3.7942E4,2.1319E4,2.6286E4,6.7646E4,3.6598E4,1.6428E4,2.777E3,6.429E3,1.8297E4,2.5482E4,1.246E4,1.0348E4,1.0971E4,9.988E3,1.6298E4,3.4731E4,3.2915E4,1.7334E4,1.9264E4,1.0969E4,5.459E3,1.838E3,9.39E2],"tree_param":{"num_deleted":"0","num_feature":"14","num_nodes":"31","size_leaf_vector":"1"}},{"base_weights":[9.176401E-3,-3.1387258E0,2.8859115E0,-4.5202665E0,-1.1774925E0,2.0509372E0,7.0875998E0,-5.219686E0,-3.6472666E0,-1.9661216E0,-5.722731E-1,1.2369485E0,3.339668E0,6.106014E0,1.148128E1,-6.272103E-1,-4.915486E-1,-3.9873293E-1,-3.0763942E-1,-2.3469463E-1,-1.5841854E-1,-8.883638E-2,-3.4003004E-2,6.621723E-2,1.6964187E-1,2.7590674E-1,3.8377944E-1,5.3593844E-1,7.2676224E-1,1.047412E0,1.4522113E0],"categories":[],"categories_nodes":[],"categories_segments":[],"categories_sizes":[],"default_left":[0,0,0,0,0,0,0,0,0,0,0,0,0,0,0,0,0,0,0,0,0,0,0,0,0,0,0,0,0,0,0],"id":13,"left_children":[1,3,5,7,9,11,13,15,17,19,21,23,25,27,29,-1,-1,-1,-1,-1,-1,-1,-1,-1,-1,-1,-1,-1,-1,-1,-1],"loss_changes":[2.1143475E6,3.0207125E5,4.279842E5,3.991975E4,2.1991613E4,1.06757E5,8.71515E4,1.15946875E4,5.636625E3,2.9063125E3,1.9136396E3,1.6472172E4,1.13835E4,1.43E4,1.1155031E4,0E0,0E0,0E0,0E0,0E0,0E0,0E0,0E0,0E0,0E0,0E0,0E0,0E0,0E0,0E0,0E0],"parents":[2147483647,0,0,1,1,2,2,3,3,4,4,5,5,6,6,7,7,8,8,9,9,10,10,11,11,12,12,13,13,14,14],"right_children":[2,4,6,8,10,12,14,16,18,20,22,24,26,28,30,-1,-1,-1,-1,-1,-1,-1,-1,-1,-1,-1,-1,-1,-1,-1,-1],"split_conditions":[3.563E1,2.438E1,5.355E1,1.778E1,3.02E1,4.386E1,6.783E1,1.268E1,2.094E1,2.725E1,3.295E1,3.909E1,4.76E1,5.799E1,8.321E1,-6.272103E-1,-4.915486E-1,-3.9873293E-1,-3.0763942E-1,-2.3469463E-1,-1.5841854E-1,-8.883638E-2,-3.4003004E-2,6.621723E-2,1.6964187E-1,2.7590674E-1,3.8377944E-1,5.3593844E-1,7.2676224E-1,1.047412E0,1.4522113E0],"split_indices":[7,7,7,7,7,7,7,7,7,7,7,7,7,7,7,0,0,0,0,0,0,0,0,0,0,0,0,0,0,0,0],"split_type":[0,0,0,0,0,0,0,0,0,0,0,0,0,0,0,0,0,0,0,0,0,0,0,0,0,0,0,0,0,0,0],"sum_hessian":[2.33481E5,1.11486E5,1.21995E5,6.5409E4,4.6077E4,1.01772E5,2.0223E4,3.6312E4,2.9097E4,2.0006E4,2.6071E4,6.2376E4,3.9396E4,1.6532E4,3.691E3,8.138E3,2.8174E4,1.8231E4,1.0866E4,1.0015E4,9.991E3,1.1041E4,1.503E4,2.7712E4,3.4664E4,1.8195E4,2.1201E4,1.0067E4,6.465E3,2.776E3,9.15E2],"tree_param":{"num_deleted":"0","num_feature":"14","num_nodes":"31","size_leaf_vector":"1"}},{"base_weights":[-8.724027E-4,-2.7963963E0,2.6269083E0,-4.067812E0,-1.0284277E0,1.9139601E0,6.6077366E0,-4.774669E0,-3.3581886E0,-1.7349926E0,-4.7081023E-1,1.2071165E0,3.18058E0,5.814526E0,1.1127751E1,-6.039599E-1,-4.573166E-1,-3.674926E-1,-2.7956006E-1,-2.0878768E-1,-1.3610202E-1,-7.634058E-2,-2.9227346E-2,7.9918206E-2,1.8147096E-1,2.7903968E-1,3.762731E-1,5.227222E-1,7.1715564E-1,1.0175873E0,1.3004812E0],"categories":[],"categories_nodes":[],"categories_segments":[],"categories_sizes":[],"default_left":[0,0,0,0,0,0,0,0,0,0,0,0,0,0,0,0,0,0,0,0,0,0,0,0,0,0,0,0,0,0,0],"id":14,"left_children":[1,3,5,7,9,11,13,15,17,19,21,23,25,27,29,-1,-1,-1,-1,-1,-1,-1,-1,-1,-1,-1,-1,-1,-1,-1,-1],"loss_changes":[1.7183452E6,2.5476412E5,3.4219412E5,3.3053625E4,1.867957E4,9.155156E4,6.559694E4,8.39025E3,5.8527812E3,2.7570195E3,1.3841641E3,1.6266969E4,8.309156E3,1.23811875E4,4.7508125E3,0E0,0E0,0E0,0E0,0E0,0E0,0E0,0E0,0E0,0E0,0E0,0E0,0E0,0E0,0E0,0E0],"parents":[2147483647,0,0,1,1,2,2,3,3,4,4,5,5,6,6,7,7,8,8,9,9,10,10,11,11,12,12,13,13,14,14],"right_children":[2,4,6,8,10,12,14,16,18,20,22,24,26,28,30,-1,-1,-1,-1,-1,-1,-1,-1,-1,-1,-1,-1,-1,-1,-1,-1],"split_conditions":[3.571E1,2.438E1,5.427E1,1.737E1,3.045E1,4.473E1,7.415E1,1.161E1,2.069E1,2.756E1,3.295E1,4.118E1,4.977E1,6.167E1,8.321E1,-6.039599E-1,-4.573166E-1,-3.674926E-1,-2.7956006E-1,-2.0878768E-1,-1.3610202E-1,-7.634058E-2,-2.9227346E-2,7.9918206E-2,1.8147096E-1,2.7903968E-1,3.762731E-1,5.227222E-1,7.1715564E-1,1.0175873E0,1.3004812E0],"split_indices":[7,7,7,7,7,7,7,7,7,7,7,7,7,7,8,0,0,0,0,0,0,0,0,0,0,0,0,0,0,0,0],"split_type":[0,0,0,0,0,0,0,0,0,0,0,0,0,0,0,0,0,0,0,0,0,0,0,0,0,0,0,0,0,0,0],"sum_hessian":[2.33913E5,1.13339E5,1.20574E5,6.5927E4,4.7412E4,1.02261E5,1.8313E4,3.3025E4,3.2902E4,2.0912E4,2.65E4,6.5635E4,3.6626E4,1.5581E4,2.732E3,4.534E3,2.8491E4,2.1047E4,1.1855E4,1.0757E4,1.0155E4,1.0041E4,1.6459E4,3.9271E4,2.6364E4,2.1932E4,1.4694E4,1.0878E4,4.703E3,1.817E3,9.15E2],"tree_param":{"num_deleted":"0","num_feature":"14","num_nodes":"31","size_leaf_vector":"1"}},{"base_weights":[-2.7919852E-3,-2.4406245E0,2.4361053E0,-3.655308E0,-8.612105E-1,1.7873266E0,5.9583006E0,-4.6328673E0,-3.2286534E0,-1.553674E0,-3.8300565E-1,1.1683153E0,2.8832462E0,5.2377677E0,1.0038431E1,-6.0944575E-1,-4.4860053E-1,-3.5811543E-1,-2.671921E-1,-1.81809E-1,-1.1563207E-1,-6.549259E-2,-2.1114774E-2,8.1912905E-2,1.678299E-1,2.5332287E-1,3.386355E-1,4.4690233E-1,6.086057E-1,9.381448E-1,1.3438163E0],"categories":[],"categories_nodes":[],"categories_segments":[],"categories_sizes":[],"default_left":[0,0,0,0,0,0,0,0,0,0,0,0,0,0,0,0,0,0,0,0,0,0,0,0,0,0,0,0,0,0,0],"id":15,"left_children":[1,3,5,7,9,11,13,15,17,19,21,23,25,27,29,-1,-1,-1,-1,-1,-1,-1,-1,-1,-1,-1,-1,-1,-1,-1,-1],"loss_changes":[1.3888679E6,2.2412044E5,2.6682806E5,2.7527375E4,1.6817316E4,6.689234E4,5.334425E4,4.279E3,9.012969E3,2.1776094E3,1.4038203E3,1.122082E4,6.25925E3,1.0040844E4,5.960375E3,0E0,0E0,0E0,0E0,0E0,0E0,0E0,0E0,0E0,0E0,0E0,0E0,0E0,0E0,0E0,0E0],"parents":[2147483647,0,0,1,1,2,2,3,3,4,4,5,5,6,6,7,7,8,8,9,9,10,10,11,11,12,12,13,13,14,14],"right_children":[2,4,6,8,10,12,14,16,18,20,22,24,26,28,30,-1,-1,-1,-1,-1,-1,-1,-1,-1,-1,-1,-1,-1,-1,-1,-1],"split_conditions":[3.62E1,2.45E1,5.427E1,1.539E1,3.045E1,4.49E1,7.415E1,1.05E1,1.96E1,2.817E1,3.344E1,4.145E1,4.977E1,5.799E1,2.7E1,-6.0944575E-1,-4.4860053E-1,-3.5811543E-1,-2.671921E-1,-1.81809E-1,-1.1563207E-1,-6.549259E-2,-2.1114774E-2,8.1912905E-2,1.678299E-1,2.5332287E-1,3.386355E-1,4.4690233E-1,6.086057E-1,9.381448E-1,1.3438163E0],"split_indices":[7,7,7,7,7,7,7,7,7,7,7,7,7,7,1,0,0,0,0,0,0,0,0,0,0,0,0,0,0,0,0],"split_type":[0,0,0,0,0,0,0,0,0,0,0,0,0,0,0,0,0,0,0,0,0,0,0,0,0,0,0,0,0,0,0],"sum_hessian":[2.33593E5,1.16822E5,1.16771E5,6.6035E4,5.0787E4,9.8609E4,1.8162E4,2.0061E4,4.5974E4,2.0745E4,3.0042E4,6.3017E4,3.5592E4,1.5438E4,2.724E3,1.828E3,1.8233E4,2.8147E4,1.7827E4,1.2454E4,8.291E3,1.1633E4,1.8409E4,3.7407E4,2.561E4,2.0993E4,1.4599E4,8.102E3,7.336E3,2.286E3,4.38E2],"tree_param":{"num_deleted":"0","num_feature":"14","num_nodes":"31","size_leaf_vector":"1"}},{"base_weights":[-1.4929235E-3,-2.1965244E0,2.1958926E0,-3.3105173E0,-8.058904E-1,1.5213695E0,4.956428E0,-4.230963E0,-2.9522429E0,-1.4641948E0,-3.6429635E-1,9.119518E-1,2.2823334E0,4.1711874E0,7.878911E0,-5.4896206E-1,-4.0943557E-1,-3.2806024E-1,-2.4847253E-1,-1.7520188E-1,-1.1489373E-1,-7.162186E-2,-2.3448434E-2,4.8777137E-2,1.1240708E-1,1.8927728E-1,2.7077845E-1,3.6077338E-1,4.8874497E-1,6.721402E-1,9.645497E-1],"categories":[],"categories_nodes":[],"categories_segments":[],"categories_sizes":[],"default_left":[0,0,0,0,0,0,0,0,0,0,0,0,0,0,0,0,0,0,0,0,0,0,0,0,0,0,0,0,0,0,0],"id":16,"left_children":[1,3,5,7,9,11,13,15,17,19,21,23,25,27,29,-1,-1,-1,-1,-1,-1,-1,-1,-1,-1,-1,-1,-1,-1,-1,-1],"loss_changes":[1.124979E6,1.807545E5,2.1702494E5,2.1351375E4,1.5086383E4,4.3436875E4,5.2489375E4,3.098125E3,7.151125E3,1.8886211E3,1.4189058E3,4.6796797E3,6.8987344E3,7.26375E3,9.844469E3,0E0,0E0,0E0,0E0,0E0,0E0,0E0,0E0,0E0,0E0,0E0,0E0,0E0,0E0,0E0,0E0],"parents":[2147483647,0,0,1,1,2,2,3,3,4,4,5,5,6,6,7,7,8,8,9,9,10,10,11,11,12,12,13,13,14,14],"right_children":[2,4,6,8,10,12,14,16,18,20,22,24,26,28,30,-1,-1,-1,-1,-1,-1,-1,-1,-1,-1,-1,-1,-1,-1,-1,-1],"split_conditions":[3.62E1,2.4E1,5.278E1,1.509E1,3.02E1,4.315E1,6.614E1,1.05E1,1.906E1,2.725E1,3.225E1,3.848E1,4.72E1,5.632E1,7.983E1,-5.4896206E-1,-4.0943557E-1,-3.2806024E-1,-2.4847253E-1,-1.7520188E-1,-1.1489373E-1,-7.162186E-2,-2.3448434E-2,4.8777137E-2,1.1240708E-1,1.8927728E-1,2.7077845E-1,3.6077338E-1,4.8874497E-1,6.721402E-1,9.645497E-1],"split_indices":[7,7,7,7,7,7,7,7,7,7,7,7,7,7,7,0,0,0,0,0,0,0,0,0,0,0,0,0,0,0,0],"split_type":[0,0,0,0,0,0,0,0,0,0,0,0,0,0,0,0,0,0,0,0,0,0,0,0,0,0,0,0,0,0,0],"sum_hessian":[2.33235E5,1.1668E5,1.16555E5,6.4783E4,5.1897E4,9.3669E4,2.2886E4,1.8148E4,4.6635E4,2.0835E4,3.1062E4,5.2015E4,4.1654E4,1.8041E4,4.845E3,1.773E3,1.6375E4,2.7391E4,1.9244E4,1.0889E4,9.946E3,8.369E3,2.2693E4,1.7341E4,3.4674E4,2.1747E4,1.9907E4,1.0101E4,7.94E3,2.93E3,1.915E3],"tree_param":{"num_deleted":"0","num_feature":"14","num_nodes":"31","size_leaf_vector":"1"}},{"base_weights":[7.568418E-4,-1.9594445E0,1.9871159E0,-3.0638058E0,-8.022091E-1,1.4717596E0,4.9022713E0,-3.8359804E0,-2.7543533E0,-1.5565852E0,-4.0450245E-1,9.8430556E-1,2.4094634E0,4.301035E0,8.100388E0,-4.6888667E-1,-3.6743566E-1,-3.0228373E-1,-2.419515E-1,-1.7895472E-1,-1.2735939E-1,-7.696164E-2,-2.147386E-2,6.78495E-2,1.404115E-1,2.1452303E-1,2.8458744E-1,3.8525775E-1,5.2851576E-1,7.516139E-1,1.1179575E0],"categories":[],"categories_nodes":[],"categories_segments":[],"categories_sizes":[],"default_left":[0,0,0,0,0,0,0,0,0,0,0,0,0,0,0,0,0,0,0,0,0,0,0,0,0,0,0,0,0,0,0],"id":17,"left_children":[1,3,5,7,9,11,13,15,17,19,21,23,25,27,29,-1,-1,-1,-1,-1,-1,-1,-1,-1,-1,-1,-1,-1,-1,-1,-1],"loss_changes":[9.082127E5,1.500355E5,1.7404538E5,1.434375E4,1.7199238E4,4.499836E4,3.342997E4,2.3515312E3,3.8483438E3,1.3024062E3,2.6008096E3,8.315516E3,3.876875E3,6.4460938E3,4.8686562E3,0E0,0E0,0E0,0E0,0E0,0E0,0E0,0E0,0E0,0E0,0E0,0E0,0E0,0E0,0E0,0E0],"parents":[2147483647,0,0,1,1,2,2,3,3,4,4,5,5,6,6,7,7,8,8,9,9,10,10,11,11,12,12,13,13,14,14],"right_children":[2,4,6,8,10,12,14,16,18,20,22,24,26,28,30,-1,-1,-1,-1,-1,-1,-1,-1,-1,-1,-1,-1,-1,-1,-1,-1],"split_conditions":[3.635E1,2.257E1,5.445E1,1.496E1,2.86E1,4.52E1,7.397E1,1.095E1,1.836E1,2.558E1,3.195E1,4.152E1,5.048E1,6.167E1,2.7E1,-4.6888667E-1,-3.6743566E-1,-3.0228373E-1,-2.419515E-1,-1.7895472E-1,-1.2735939E-1,-7.696164E-2,-2.147386E-2,6.78495E-2,1.404115E-1,2.1452303E-1,2.8458744E-1,3.8525775E-1,5.2851576E-1,7.516139E-1,1.1179575E0],"split_indices":[6,6,6,6,6,6,8,6,6,6,6,6,6,8,1,0,0,0,0,0,0,0,0,0,0,0,0,0,0,0,0],"split_type":[0,0,0,0,0,0,0,0,0,0,0,0,0,0,0,0,0,0,0,0,0,0,0,0,0,0,0,0,0,0,0],"sum_hessian":[2.33252E5,1.17399E5,1.15853E5,6.0071E4,5.7328E4,9.845E4,1.7403E4,1.7183E4,4.2888E4,1.9789E4,3.7539E4,6.4778E4,3.3672E4,1.4651E4,2.752E3,2.733E3,1.445E4,2.3798E4,1.909E4,1.0851E4,8.938E3,1.2837E4,2.4702E4,3.7479E4,2.7299E4,2.0977E4,1.2695E4,1.0068E4,4.583E3,2.316E3,4.36E2],"tree_param":{"num_deleted":"0","num_feature":"14","num_nodes":"31","size_leaf_vector":"1"}},{"base_weights":[-2.6517266E-3,-1.9423159E0,1.6349106E0,-2.8393497E0,-9.6105254E-1,1.0541071E0,3.817278E0,-3.4871123E0,-2.5675964E0,-1.5100466E0,-5.181189E-1,5.529513E-1,1.7253039E0,3.1893828E0,6.211815E0,-5.5624366E-1,-3.4237665E-1,-2.7754313E-1,-2.3298602E-1,-1.6942362E-1,-1.2328376E-1,-8.0747895E-2,-3.360459E-2,7.291682E-3,8.109543E-2,1.4088984E-1,2.0569444E-1,2.7682483E-1,3.8286793E-1,5.3098196E-1,7.8619045E-1],"categories":[],"categories_nodes":[],"categories_segments":[],"categories_sizes":[],"default_left":[0,0,0,0,0,0,0,0,0,0,0,0,0,0,0,0,0,0,0,0,0,0,0,0,0,0,0,0,0,0,0],"id":18,"left_children":[1,3,5,7,9,11,13,15,17,19,21,23,25,27,29,-1,-1,-1,-1,-1,-1,-1,-1,-1,-1,-1,-1,-1,-1,-1,-1],"loss_changes":[7.4146775E5,9.405916E4,1.6043316E5,9.8181875E3,1.2409539E4,3.3626695E4,3.9981312E4,2.1495625E3,1.936875E3,1.1614961E3,1.4879653E3,7.0887617E3,4.4814062E3,5.6647656E3,8.183E3,0E0,0E0,0E0,0E0,0E0,0E0,0E0,0E0,0E0,0E0,0E0,0E0,0E0,0E0,0E0,0E0],"parents":[2147483647,0,0,1,1,2,2,3,3,4,4,5,5,6,6,7,7,8,8,9,9,10,10,11,11,12,12,13,13,14,14],"right_children":[2,4,6,8,10,12,14,16,18,20,22,24,26,28,30,-1,-1,-1,-1,-1,-1,-1,-1,-1,-1,-1,-1,-1,-1,-1,-1],"split_conditions":[3.49E1,2.124E1,5.155E1,1.483E1,2.817E1,4.266E1,6.443E1,1.007E1,1.79E1,2.504E1,3.092E1,3.755E1,4.572E1,5.593E1,7.983E1,-5.5624366E-1,-3.4237665E-1,-2.7754313E-1,-2.3298602E-1,-1.6942362E-1,-1.2328376E-1,-8.0747895E-2,-3.360459E-2,7.291682E-3,8.109543E-2,1.4088984E-1,2.0569444E-1,2.7682483E-1,3.8286793E-1,5.3098196E-1,7.8619045E-1],"split_indices":[7,7,7,7,7,7,7,7,7,7,7,7,7,7,7,0,0,0,0,0,0,0,0,0,0,0,0,0,0,0,0],"split_type":[0,0,0,0,0,0,0,0,0,0,0,0,0,0,0,0,0,0,0,0,0,0,0,0,0,0,0,0,0,0,0],"sum_hessian":[2.33434E5,1.0686E5,1.26574E5,5.5825E4,5.1035E4,9.997E4,2.6604E4,1.6495E4,3.933E4,2.2788E4,2.8247E4,5.7236E4,4.2734E4,2.1079E4,5.525E3,4.86E2,1.6009E4,2.0979E4,1.8351E4,1.3688E4,9.1E3,1.0908E4,1.7339E4,2.0009E4,3.7227E4,2.1872E4,2.0862E4,1.2711E4,8.368E3,3.575E3,1.95E3],"tree_param":{"num_deleted":"0","num_feature":"14","num_nodes":"31","size_leaf_vector":"1"}},{"base_weights":[-2.4441135E-4,-1.6798428E0,1.5290309E0,-2.5548747E0,-8.058193E-1,1.046622E0,3.6246958E0,-3.1386964E0,-2.3101294E0,-1.3420275E0,-4.04708E-1,5.663951E-1,1.6308991E0,3.130761E0,6.203446E0,-4.0755996E-1,-3.0214968E-1,-2.4971914E-1,-2.0962344E-1,-1.5265425E-1,-1.0918639E-1,-7.105766E-2,-2.6661608E-2,1.487318E-2,7.613936E-2,1.3257377E-1,1.949916E-1,2.750672E-1,3.8881943E-1,5.778789E-1,9.1922754E-1],"categories":[],"categories_nodes":[],"categories_segments":[],"categories_sizes":[],"default_left":[0,0,0,0,0,0,0,0,0,0,0,0,0,0,0,0,0,0,0,0,0,0,0,0,0,0,0,0,0,0,0],"id":19,"left_children":[1,3,5,7,9,11,13,15,17,19,21,23,25,27,29,-1,-1,-1,-1,-1,-1,-1,-1,-1,-1,-1,-1,-1,-1,-1,-1],"loss_changes":[5.990724E5,8.500756E4,1.2341409E5,7.9292812E3,1.1960008E4,2.7843555E4,2.90765E4,1.7889219E3,1.5608594E3,1.0967773E3,1.3435703E3,4.436127E3,4.3556562E3,5.5090625E3,4.6062188E3,0E0,0E0,0E0,0E0,0E0,0E0,0E0,0E0,0E0,0E0,0E0,0E0,0E0,0E0,0E0,0E0],"parents":[2147483647,0,0,1,1,2,2,3,3,4,4,5,5,6,6,7,7,8,8,9,9,10,10,11,11,12,12,13,13,14,14],"right_children":[2,4,6,8,10,12,14,16,18,20,22,24,26,28,30,-1,-1,-1,-1,-1,-1,-1,-1,-1,-1,-1,-1,-1,-1,-1,-1],"split_conditions":[3.554E1,2.124E1,5.278E1,1.483E1,2.836E1,4.288E1,6.783E1,1.05E1,1.79E1,2.504E1,3.092E1,3.784E1,4.671E1,5.799E1,2.7E1,-4.0755996E-1,-3.0214968E-1,-2.4971914E-1,-2.0962344E-1,-1.5265425E-1,-1.0918639E-1,-7.105766E-2,-2.6661608E-2,1.487318E-2,7.613936E-2,1.3257377E-1,1.949916E-1,2.750672E-1,3.8881943E-1,5.778789E-1,9.1922754E-1],"split_indices":[7,7,7,7,7,7,7,7,7,7,7,7,7,7,1,0,0,0,0,0,0,0,0,0,0,0,0,0,0,0,0],"split_type":[0,0,0,0,0,0,0,0,0,0,0,0,0,0,0,0,0,0,0,0,0,0,0,0,0,0,0,0,0,0,0],"sum_hessian":[2.3323E5,1.11152E5,1.22078E5,5.5543E4,5.5609E4,9.9236E4,2.2842E4,1.6403E4,3.914E4,2.3796E4,3.1813E4,5.4469E4,4.4767E4,1.9172E4,3.67E3,1.82E3,1.4583E4,2.0874E4,1.8266E4,1.3692E4,1.0104E4,9.894E3,2.1919E4,1.7337E4,3.7132E4,2.2883E4,2.1884E4,1.2769E4,6.403E3,3.216E3,4.54E2],"tree_param":{"num_deleted":"0","num_feature":"14","num_nodes":"31","size_leaf_vector":"1"}},{"base_weights":[3.0987235E-4,-1.4320661E0,1.451403E0,-2.2489445E0,-6.0245174E-1,1.0746502E0,3.596673E0,-2.8063638E0,-2.020342E0,-1.1133883E0,-2.8096867E-1,6.89337E-1,1.7063464E0,3.149145E0,5.975332E0,-4.61094E-1,-2.7527177E-1,-2.2098088E-1,-1.7744856E-1,-1.3130319E-1,-8.9291595E-2,-4.938821E-2,-1.2926104E-2,4.4437412E-2,9.544336E-2,1.469558E-1,2.012363E-1,3.165689E-1,-1.4311093E0,5.498248E-1,8.4486943E-1],"categories":[],"categories_nodes":[],"categories_segments":[],"categories_sizes":[],"default_left":[0,0,0,0,0,0,0,0,0,0,0,0,0,0,0,0,0,0,0,0,0,0,0,0,0,0,0,0,0,0,0],"id":20,"left_children":[1,3,5,7,9,11,13,15,17,19,21,23,25,27,29,-1,-1,-1,-1,-1,-1,-1,-1,-1,-1,-1,-1,-1,-1,-1,-1],"loss_changes":[4.857501E5,7.970155E4,9.382597E4,7.5455312E3,9.584273E3,2.403489E4,1.8442016E4,1.6555312E3,1.9538125E3,9.9072656E2,1.1568467E3,3.9828594E3,2.708039E3,4.2621094E3,3.1926484E3,0E0,0E0,0E0,0E0,0E0,0E0,0E0,0E0,0E0,0E0,0E0,0E0,0E0,0E0,0E0,0E0],"parents":[2147483647,0,0,1,1,2,2,3,3,4,4,5,5,6,6,7,7,8,8,9,9,10,10,11,11,12,12,13,13,14,14],"right_children":[2,4,6,8,10,12,14,16,18,20,22,24,26,28,30,-1,-1,-1,-1,-1,-1,-1,-1,-1,-1,-1,-1,-1,-1,-1,-1],"split_conditions":[3.637E1,2.225E1,5.443E1,1.496E1,2.9E1,4.473E1,7.415E1,1.007E1,1.836E1,2.558E1,3.295E1,4.077E1,4.958E1,7.9616604E0,2.7E1,-4.61094E-1,-2.7527177E-1,-2.2098088E-1,-1.7744856E-1,-1.3130319E-1,-8.9291595E-2,-4.938821E-2,-1.2926104E-2,4.4437412E-2,9.544336E-2,1.469558E-1,2.012363E-1,3.165689E-1,-1.4311093E0,5.498248E-1,8.4486943E-1],"split_indices":[7,7,7,7,7,7,7,7,7,7,7,7,7,9,1,0,0,0,0,0,0,0,0,0,0,0,0,0,0,0,0],"split_type":[0,0,0,0,0,0,0,0,0,0,0,0,0,0,0,0,0,0,0,0,0,0,0,0,0,0,0,0,0,0,0],"sum_hessian":[2.33699E5,1.17608E5,1.16091E5,5.9258E4,5.835E4,9.875E4,1.7341E4,1.7231E4,4.2027E4,2.2534E4,3.5816E4,6.1338E4,3.7412E4,1.4597E4,2.744E3,4.95E2,1.6736E4,2.3731E4,1.8296E4,1.1823E4,1.0711E4,1.4901E4,2.0915E4,3.1881E4,2.9457E4,2.1095E4,1.6317E4,1.4584E4,1.3E1,2.303E3,4.41E2],"tree_param":{"num_deleted":"0","num_feature":"14","num_nodes":"31","size_leaf_vector":"1"}},{"base_weights":[3.733486E-4,-1.4595187E0,1.1557219E0,-2.0698502E0,-7.4560434E-1,7.383672E-1,2.789525E0,-2.7387052E0,-1.9223535E0,-1.1012903E0,-4.1505623E-1,3.021476E-1,1.1879498E0,2.322982E0,4.5977445E0,-4.1352344E-1,-2.668549E-1,-2.0945804E-1,-1.720776E-1,-1.2312628E-1,-9.0625405E-2,-5.8805842E-2,-2.79214E-2,-2.890242E-3,5.028356E-2,9.618722E-2,1.4884064E-1,2.0354281E-1,2.8561017E-1,4.1814986E-1,6.628501E-1],"categories":[],"categories_nodes":[],"categories_segments":[],"categories_sizes":[],"default_left":[0,0,0,0,0,0,0,0,0,0,0,0,0,0,0,0,0,0,0,0,0,0,0,0,0,0,0,0,0,0,0],"id":21,"left_children":[1,3,5,7,9,11,13,15,17,19,21,23,25,27,29,-1,-1,-1,-1,-1,-1,-1,-1,-1,-1,-1,-1,-1,-1,-1,-1],"loss_changes":[3.941022E5,4.4975234E4,8.893633E4,5.484625E3,5.593115E3,2.0374984E4,2.2377953E4,9.738125E2,1.5793906E3,5.7979297E2,5.7939355E2,3.5034102E3,3.4738906E3,3.2285234E3,4.572367E3,0E0,0E0,0E0,0E0,0E0,0E0,0E0,0E0,0E0,0E0,0E0,0E0,0E0,0E0,0E0,0E0],"parents":[2147483647,0,0,1,1,2,2,3,3,4,4,5,5,6,6,7,7,8,8,9,9,10,10,11,11,12,12,13,13,14,14],"right_children":[2,4,6,8,10,12,14,16,18,20,22,24,26,28,30,-1,-1,-1,-1,-1,-1,-1,-1,-1,-1,-1,-1,-1,-1,-1,-1],"split_conditions":[3.437E1,2.124E1,5.155E1,1.308E1,2.817E1,4.161E1,6.443E1,1.007E1,1.76E1,2.504E1,3.092E1,3.714E1,4.555E1,5.632E1,8.321E1,-4.1352344E-1,-2.668549E-1,-2.0945804E-1,-1.720776E-1,-1.2312628E-1,-9.0625405E-2,-5.8805842E-2,-2.79214E-2,-2.890242E-3,5.028356E-2,9.618722E-2,1.4884064E-1,2.0354281E-1,2.8561017E-1,4.1814986E-1,6.628501E-1],"split_indices":[7,7,7,7,7,7,7,7,7,7,7,7,7,7,7,0,0,0,0,0,0,0,0,0,0,0,0,0,0,0,0],"split_type":[0,0,0,0,0,0,0,0,0,0,0,0,0,0,0,0,0,0,0,0,0,0,0,0,0,0,0,0,0,0,0],"sum_hessian":[2.33653E5,1.03222E5,1.30431E5,5.5647E4,4.7575E4,1.03893E5,2.6538E4,1.0051E4,4.5596E4,2.2915E4,2.466E4,5.2731E4,5.1162E4,2.1097E4,5.441E3,4.78E2,9.573E3,2.4583E4,2.1013E4,1.3748E4,9.167E3,1.0845E4,1.3815E4,1.9902E4,3.2829E4,2.9197E4,2.1965E4,1.3708E4,7.389E3,4.518E3,9.23E2],"tree_param":{"num_deleted":"0","num_feature":"14","num_nodes":"31","size_leaf_vector":"1"}},{"base_weights":[1.7254615E-3,-1.181206E0,1.1616981E0,-1.8447553E0,-5.265609E-1,8.8160515E-1,3.1070993E0,-2.4085147E0,-1.6979295E0,-8.909584E-1,-2.2008528E-1,5.50617E-1,1.4368682E0,2.6959836E0,4.8971725E0,-3.7356925E-1,-2.3517457E-1,-1.8539815E-1,-1.4998119E-1,-1.0722186E-1,-6.959361E-2,-3.593304E-2,-1.0388009E-2,3.3153266E-2,7.775136E-2,1.2439996E-1,1.7237604E-1,2.7131253E-1,-1.2262803E0,4.4994065E-1,7.017092E-1],"categories":[],"categories_nodes":[],"categories_segments":[],"categories_sizes":[],"default_left":[0,0,0,0,0,0,0,0,0,0,0,0,0,0,0,0,0,0,0,0,0,0,0,0,0,0,0,0,0,0,0],"id":22,"left_children":[1,3,5,7,9,11,13,15,17,19,21,23,25,27,29,-1,-1,-1,-1,-1,-1,-1,-1,-1,-1,-1,-1,-1,-1,-1,-1],"loss_changes":[3.205234E5,5.023614E4,6.4261438E4,4.749953E3,6.501418E3,1.8946945E4,1.0910156E4,8.8516406E2,1.4060938E3,9.3938086E2,5.1165466E2,3.2107266E3,2.1283281E3,3.1289844E3,2.3050234E3,0E0,0E0,0E0,0E0,0E0,0E0,0E0,0E0,0E0,0E0,0E0,0E0,0E0,0E0,0E0,0E0],"parents":[2147483647,0,0,1,1,2,2,3,3,4,4,5,5,6,6,7,7,8,8,9,9,10,10,11,11,12,12,13,13,14,14],"right_children":[2,4,6,8,10,12,14,16,18,20,22,24,26,28,30,-1,-1,-1,-1,-1,-1,-1,-1,-1,-1,-1,-1,-1,-1,-1,-1],"split_conditions":[3.607E1,2.171E1,5.547E1,1.36E1,2.961E1,4.5E1,7.415E1,1.007E1,1.79E1,2.558E1,3.344E1,4.06E1,5.048E1,7.9616604E0,2.7E1,-3.7356925E-1,-2.3517457E-1,-1.8539815E-1,-1.4998119E-1,-1.0722186E-1,-6.959361E-2,-3.593304E-2,-1.0388009E-2,3.3153266E-2,7.775136E-2,1.2439996E-1,1.7237604E-1,2.7131253E-1,-1.2262803E0,4.4994065E-1,7.017092E-1],"split_indices":[7,7,7,7,7,7,7,7,7,7,7,7,7,9,1,0,0,0,0,0,0,0,0,0,0,0,0,0,0,0,0],"split_type":[0,0,0,0,0,0,0,0,0,0,0,0,0,0,0,0,0,0,0,0,0,0,0,0,0,0,0,0,0,0,0],"sum_hessian":[2.33587E5,1.15649E5,1.17938E5,5.7433E4,5.8216E4,1.03096E5,1.4842E4,1.1864E4,4.5569E4,2.6594E4,3.1622E4,6.4594E4,3.8502E4,1.2072E4,2.77E3,4.84E2,1.138E4,2.5486E4,2.0083E4,1.3781E4,1.2813E4,1.4384E4,1.7238E4,3.2864E4,3.173E4,2.3027E4,1.5475E4,1.2059E4,1.3E1,2.335E3,4.35E2],"tree_param":{"num_deleted":"0","num_feature":"14","num_nodes":"31","size_leaf_vector":"1"}},{"base_weights":[-7.370314E-4,-1.0139041E0,1.0938444E0,-1.576897E0,-3.4054896E-1,8.3776355E-1,2.79226E0,-1.9281517E0,-1.3288252E0,-6.4929485E-1,-1.2995693E-1,5.713049E-1,1.3445339E0,2.488514E0,4.7975187E0,-2.4881573E-1,-1.8178947E-1,-1.4799853E-1,-1.0868782E-1,-8.048492E-2,-5.095178E-2,-2.446739E-2,-5.5763754E-3,3.8695157E-2,7.685479E-2,1.3519615E-1,-6.747252E-1,2.504494E-1,-1.2258328E0,6.184796E-1,4.1444477E-1],"categories":[],"categories_nodes":[],"categories_segments":[],"categories_sizes":[],"default_left":[0,0,0,0,0,0,0,0,0,0,0,0,0,0,0,0,0,0,0,0,0,0,0,0,0,0,0,0,0,0,0],"id":23,"left_children":[1,3,5,7,9,11,13,15,17,19,21,23,25,27,29,-1,-1,-1,-1,-1,-1,-1,-1,-1,-1,-1,-1,-1,-1,-1,-1],"loss_changes":[2.5902994E5,4.5982453E4,4.8829625E4,5.7538438E3,3.5913286E3,1.3173891E4,8.947766E3,1.6836953E3,1.4145234E3,4.865879E2,2.7948615E2,2.3249316E3,2.0298359E3,3.0416406E3,1.7265547E3,0E0,0E0,0E0,0E0,0E0,0E0,0E0,0E0,0E0,0E0,0E0,0E0,0E0,0E0,0E0,0E0],"parents":[2147483647,0,0,1,1,2,2,3,3,4,4,5,5,6,6,7,7,8,8,9,9,10,10,11,11,12,12,13,13,14,14],"right_children":[2,4,6,8,10,12,14,16,18,20,22,24,26,28,30,-1,-1,-1,-1,-1,-1,-1,-1,-1,-1,-1,-1,-1,-1,-1,-1],"split_conditions":[3.688E1,2.45E1,5.547E1,1.664E1,3.074E1,4.555E1,7.983E1,1.161E1,2.013E1,2.756E1,3.408E1,4.145E1,6.420135E0,9.930425E0,7E0,-2.4881573E-1,-1.8178947E-1,-1.4799853E-1,-1.0868782E-1,-8.048492E-2,-5.095178E-2,-2.446739E-2,-5.5763754E-3,3.8695157E-2,7.685479E-2,1.3519615E-1,-6.747252E-1,2.504494E-1,-1.2258328E0,6.184796E-1,4.1444477E-1],"split_indices":[7,7,7,7,7,7,7,7,7,7,7,7,9,9,0,0,0,0,0,0,0,0,0,0,0,0,0,0,0,0,0],"split_type":[0,0,0,0,0,0,0,0,0,0,0,0,0,0,0,0,0,0,0,0,0,0,0,0,0,0,0,0,0,0,0],"sum_hessian":[2.3357E5,1.21296E5,1.12274E5,6.6061E4,5.5235E4,9.7565E4,1.4709E4,2.7341E4,3.872E4,2.2397E4,3.2838E4,6.3945E4,3.362E4,1.2776E4,1.933E3,4.494E3,2.2847E4,2.3828E4,1.4892E4,1.0598E4,1.1799E4,1.2896E4,1.9942E4,3.3054E4,3.0891E4,3.359E4,3E1,1.2763E4,1.3E1,6.16E2,1.317E3],"tree_param":{"num_deleted":"0","num_feature":"14","num_nodes":"31","size_leaf_vector":"1"}},{"base_weights":[4.784053E-4,-9.122267E-1,9.861349E-1,-1.4185419E0,-3.0757165E-1,7.1513814E-1,2.2991686E0,-1.7349805E0,-1.1951401E0,-5.8457255E-1,-1.18667394E-1,4.4096974E-1,1.0500102E0,1.8756816E0,3.5477612E0,-2.1505523E-1,-1.608157E-1,-1.3176042E-1,-9.529256E-2,-7.0538156E-2,-4.341738E-2,-1.170837E-2,-4.841952E-1,2.7103925E-2,5.4300766E-2,8.69711E-2,1.26285E-1,1.8842655E-1,-7.743143E-1,3.030058E-1,4.6864173E-1],"categories":[],"categories_nodes":[],"categories_segments":[],"categories_sizes":[],"default_left":[0,0,0,0,0,0,0,0,0,0,0,0,0,0,0,0,0,0,0,0,0,0,0,0,0,0,0,0,0,0,0],"id":24,"left_children":[1,3,5,7,9,11,13,15,17,19,21,23,25,27,29,-1,-1,-1,-1,-1,-1,-1,-1,-1,-1,-1,-1,-1,-1,-1,-1],"loss_changes":[2.1031528E5,3.7160805E4,3.999343E4,4.668172E3,2.8946938E3,8.553781E3,1.0160922E4,1.4373203E3,1.1475117E3,4.0723584E2,2.4547198E2,8.88166E2,1.6084219E3,1.2003203E3,2.8560117E3,0E0,0E0,0E0,0E0,0E0,0E0,0E0,0E0,0E0,0E0,0E0,0E0,0E0,0E0,0E0,0E0],"parents":[2147483647,0,0,1,1,2,2,3,3,4,4,5,5,6,6,7,7,8,8,9,9,10,10,11,11,12,12,13,13,14,14],"right_children":[2,4,6,8,10,12,14,16,18,20,22,24,26,28,30,-1,-1,-1,-1,-1,-1,-1,-1,-1,-1,-1,-1,-1,-1,-1,-1],"split_conditions":[3.688E1,2.45E1,5.386E1,1.664E1,3.074E1,4.36E1,6.614E1,1.215E1,2.043E1,2.817E1,3.933E1,3.921E1,4.833E1,7.9616604E0,1.6886023E2,-2.1505523E-1,-1.608157E-1,-1.3176042E-1,-9.529256E-2,-7.0538156E-2,-4.341738E-2,-1.170837E-2,-4.841952E-1,2.7103925E-2,5.4300766E-2,8.69711E-2,1.26285E-1,1.8842655E-1,-7.743143E-1,3.030058E-1,4.6864173E-1],"split_indices":[7,7,7,7,7,7,7,7,7,7,6,7,7,9,11,0,0,0,0,0,0,0,0,0,0,0,0,0,0,0,0],"split_type":[0,0,0,0,0,0,0,0,0,0,0,0,0,0,0,0,0,0,0,0,0,0,0,0,0,0,0,0,0,0,0],"sum_hessian":[2.33782E5,1.21383E5,1.12399E5,6.6063E4,5.532E4,9.3171E4,1.9228E4,2.7336E4,3.8727E4,2.2429E4,3.2891E4,5.123E4,4.1941E4,1.436E4,4.868E3,6.388E3,2.0948E4,2.5719E4,1.3008E4,1.2436E4,9.993E3,3.2881E4,1E1,1.9222E4,3.2008E4,2.2709E4,1.9232E4,1.4348E4,1.2E1,3.349E3,1.519E3],"tree_param":{"num_deleted":"0","num_feature":"14","num_nodes":"31","size_leaf_vector":"1"}},{"base_weights":[-1.5080385E-3,-9.2973405E-1,7.8209114E-1,-1.3612815E0,-4.5999599E-1,5.134684E-1,1.8884778E0,-1.8205991E0,-1.260143E0,-7.1626866E-1,-2.536895E-1,2.5473517E-1,8.3370954E-1,1.5472611E0,3.0974388E0,-2.922641E-1,-1.7640357E-1,-1.3870452E-1,-1.14374995E-1,-7.89432E-2,-5.6261696E-2,-3.7226528E-2,-1.5534744E-2,3.444827E-3,3.933752E-2,7.031395E-2,1.032629E-1,1.5548642E-1,-7.1799994E-1,2.8148696E-1,4.4976225E-1],"categories":[],"categories_nodes":[],"categories_segments":[],"categories_sizes":[],"default_left":[0,0,0,0,0,0,0,0,0,0,0,0,0,0,0,0,0,0,0,0,0,0,0,0,0,0,0,0,0,0,0],"id":25,"left_children":[1,3,5,7,9,11,13,15,17,19,21,23,25,27,29,-1,-1,-1,-1,-1,-1,-1,-1,-1,-1,-1,-1,-1,-1,-1,-1],"loss_changes":[1.701332E5,2.1704398E4,3.7694164E4,2.5900625E3,2.7104482E3,8.45593E3,1.021657E4,6.224375E2,6.7396875E2,2.5659668E2,3.3117273E2,1.724033E3,1.1838184E3,1.2935312E3,2.1448125E3,0E0,0E0,0E0,0E0,0E0,0E0,0E0,0E0,0E0,0E0,0E0,0E0,0E0,0E0,0E0,0E0],"parents":[2147483647,0,0,1,1,2,2,3,3,4,4,5,5,6,6,7,7,8,8,9,9,10,10,11,11,12,12,13,13,14,14],"right_children":[2,4,6,8,10,12,14,16,18,20,22,24,26,28,30,-1,-1,-1,-1,-1,-1,-1,-1,-1,-1,-1,-1,-1,-1,-1,-1],"split_conditions":[3.49E1,2.124E1,5.2E1,1.308E1,2.817E1,4.254E1,6.443E1,1.007E1,1.724E1,2.558E1,3.147E1,3.784E1,4.72E1,7.9616604E0,8.321E1,-2.922641E-1,-1.7640357E-1,-1.3870452E-1,-1.14374995E-1,-7.89432E-2,-5.6261696E-2,-3.7226528E-2,-1.5534744E-2,3.444827E-3,3.933752E-2,7.031395E-2,1.032629E-1,1.5548642E-1,-7.1799994E-1,2.8148696E-1,4.4976225E-1],"split_indices":[7,7,7,7,7,7,7,7,7,7,7,7,7,9,7,0,0,0,0,0,0,0,0,0,0,0,0,0,0,0,0],"split_type":[0,0,0,0,0,0,0,0,0,0,0,0,0,0,0,0,0,0,0,0,0,0,0,0,0,0,0,0,0,0,0],"sum_hessian":[2.33904E5,1.07071E5,1.26833E5,5.5803E4,5.1268E4,1.02056E5,2.4777E4,1.0067E4,4.5736E4,2.2864E4,2.8404E4,5.645E4,4.5606E4,1.9325E4,5.452E3,4.89E2,9.578E3,2.1875E4,2.3861E4,1.5486E4,7.378E3,1.2876E4,1.5528E4,2.1805E4,3.4645E4,2.7536E4,1.807E4,1.9309E4,1.6E1,4.539E3,9.13E2],"tree_param":{"num_deleted":"0","num_feature":"14","num_nodes":"31","size_leaf_vector":"1"}},{"base_weights":[7.3407823E-4,-7.628474E-1,7.735975E-1,-1.1755247E0,-3.0187175E-1,6.011637E-1,2.161308E0,-1.4453768E0,-1.0191404E0,-5.4081666E-1,-1.3519195E-1,3.5990885E-1,9.406906E-1,1.9074497E0,3.5658636E0,-1.8273492E-1,-1.3499564E-1,-1.1009859E-1,-8.294702E-2,-5.4237943E-2,1.7560629E0,-2.3669668E-2,-6.415957E-3,1.6825955E-2,4.5597464E-2,7.936152E-2,1.1573296E-1,1.9260736E-1,-1.010096E0,3.0776048E-1,5.689251E-1],"categories":[],"categories_nodes":[],"categories_segments":[],"categories_sizes":[],"default_left":[0,0,0,0,0,0,0,0,0,0,0,0,0,0,0,0,0,0,0,0,0,0,0,0,0,0,0,0,0,0,0],"id":26,"left_children":[1,3,5,7,9,11,13,15,17,19,21,23,25,27,29,-1,-1,-1,-1,-1,-1,-1,-1,-1,-1,-1,-1,-1,-1,-1,-1],"loss_changes":[1.3793439E5,2.236568E4,2.7794172E4,2.6164453E3,2.2118154E3,8.463027E3,4.5706875E3,8.270156E2,6.088242E2,6.550879E2,2.3587842E2,1.1120176E3,1.3665781E3,2.4515625E3,2.0186914E3,0E0,0E0,0E0,0E0,0E0,0E0,0E0,0E0,0E0,0E0,0E0,0E0,0E0,0E0,0E0,0E0],"parents":[2147483647,0,0,1,1,2,2,3,3,4,4,5,5,6,6,7,7,8,8,9,9,10,10,11,11,12,12,13,13,14,14],"right_children":[2,4,6,8,10,12,14,16,18,20,22,24,26,28,30,-1,-1,-1,-1,-1,-1,-1,-1,-1,-1,-1,-1,-1,-1,-1,-1],"split_conditions":[3.635E1,2.299E1,5.632E1,1.583E1,3E1,4.46E1,7.983E1,1.161E1,1.998E1,2.7E1,3.344E1,3.888E1,5.047E1,7.9616604E0,2.7E1,-1.8273492E-1,-1.3499564E-1,-1.1009859E-1,-8.294702E-2,-5.4237943E-2,1.7560629E0,-2.3669668E-2,-6.415957E-3,1.6825955E-2,4.5597464E-2,7.936152E-2,1.1573296E-1,1.9260736E-1,-1.010096E0,3.0776048E-1,5.689251E-1],"split_indices":[6,6,6,6,6,6,8,6,6,1,6,6,8,9,1,0,0,0,0,0,0,0,0,0,0,0,0,0,0,0,0],"split_type":[0,0,0,0,0,0,0,0,0,0,0,0,0,0,0,0,0,0,0,0,0,0,0,0,0,0,0,0,0,0,0],"sum_hessian":[2.33728E5,1.1757E5,1.16158E5,6.2034E4,5.5536E4,1.03321E5,1.2837E4,2.2757E4,3.9277E4,2.282E4,3.2716E4,6.0403E4,4.2918E4,1.0874E4,1.963E3,4.545E3,1.8212E4,2.7434E4,1.1843E4,2.2819E4,1E0,1.3468E4,1.9248E4,2.0169E4,4.0234E4,2.5566E4,1.7352E4,1.0858E4,1.6E1,1.598E3,3.65E2],"tree_param":{"num_deleted":"0","num_feature":"14","num_nodes":"31","size_leaf_vector":"1"}},{"base_weights":[2.6292764E-4,-6.656858E-1,7.189464E-1,-1.0215833E0,-2.0633526E-1,5.789666E-1,2.1405332E0,-1.3091612E0,-8.7819743E-1,-3.9318255E-1,-8.3676346E-2,3.7624827E-1,9.3143564E-1,1.8754848E0,3.2402844E0,-1.7874324E-1,-1.24384E-1,-9.877122E-2,-7.000018E-2,2.0817123E-1,-3.969417E-2,-8.077058E-3,-1.5092558E-1,2.5782594E-2,5.284459E-2,7.917919E-2,1.1103058E-1,1.8884708E-1,-1.9588848E0,2.7910098E-1,5.2108717E-1],"categories":[],"categories_nodes":[],"categories_segments":[],"categories_sizes":[],"default_left":[0,0,0,0,0,0,0,0,0,0,0,0,0,0,0,0,0,0,0,0,0,0,0,0,0,0,0,0,0,0,0],"id":27,"left_children":[1,3,5,7,9,11,13,15,17,19,21,23,25,27,29,-1,-1,-1,-1,-1,-1,-1,-1,-1,-1,-1,-1,-1,-1,-1,-1],"loss_changes":[1.11892414E5,1.9837637E4,2.2373988E4,2.8181406E3,1.214074E3,7.313754E3,2.9318281E3,7.083906E2,8.8971875E2,1.9614478E2,1.3236046E2,1.1711992E3,9.327031E2,2.3014375E3,1.7171699E3,0E0,0E0,0E0,0E0,0E0,0E0,0E0,0E0,0E0,0E0,0E0,0E0,0E0,0E0,0E0,0E0],"parents":[2147483647,0,0,1,1,2,2,3,3,4,4,5,5,6,6,7,7,8,8,9,9,10,10,11,11,12,12,13,13,14,14],"right_children":[2,4,6,8,10,12,14,16,18,20,22,24,26,28,30,-1,-1,-1,-1,-1,-1,-1,-1,-1,-1,-1,-1,-1,-1,-1,-1],"split_conditions":[3.688E1,2.486E1,5.799E1,1.583E1,3.092E1,4.572E1,7.983E1,1.095E1,2.013E1,2.356E1,3.746E1,4.186E1,5.155E1,8.321E1,2.7E1,-1.7874324E-1,-1.24384E-1,-9.877122E-2,-7.000018E-2,2.0817123E-1,-3.969417E-2,-8.077058E-3,-1.5092558E-1,2.5782594E-2,5.284459E-2,7.917919E-2,1.1103058E-1,1.8884708E-1,-1.9588848E0,2.7910098E-1,5.2108717E-1],"split_indices":[7,7,7,7,7,7,7,7,7,8,8,7,7,6,1,0,0,0,0,0,0,0,0,0,0,0,0,0,0,0,0],"split_type":[0,0,0,0,0,0,0,0,0,0,0,0,0,0,0,0,0,0,0,0,0,0,0,0,0,0,0,0,0,0,0],"sum_hessian":[2.33786E5,1.21345E5,1.12441E5,6.8371E4,5.2974E4,1.02363E5,1.0078E4,2.2745E4,4.5626E4,2.0993E4,3.1981E4,6.4988E4,3.7375E4,8.123E3,1.955E3,2.73E3,2.0015E4,2.8256E4,1.737E4,3.1E1,2.0962E4,3.1917E4,6.4E1,3.6551E4,2.8437E4,2.0992E4,1.6383E4,8.119E3,4E0,1.594E3,3.61E2],"tree_param":{"num_deleted":"0","num_feature":"14","num_nodes":"31","size_leaf_vector":"1"}},{"base_weights":[1.298374E-3,-7.002448E-1,5.5368525E-1,-9.894993E-1,-3.606192E-1,3.680871E-1,1.4251114E0,-1.3365041E0,-9.134982E-1,-5.561107E-1,-2.1779904E-1,1.7413658E-1,6.2310034E-1,1.1076279E0,2.234209E0,-2.1658953E-1,-1.2917298E-1,-9.968289E-2,-8.156776E-2,-5.5492874E-2,-4.4000173E-1,-2.1902354E-2,1.6643009E0,9.843662E-4,2.923255E-2,5.2858084E-2,7.827626E-2,1.03158966E-1,1.370245E-1,1.9844423E-1,3.082067E-1],"categories":[],"categories_nodes":[],"categories_segments":[],"categories_sizes":[],"default_left":[0,0,0,0,0,0,0,0,0,0,0,0,0,0,0,0,0,0,0,0,0,0,0,0,0,0,0,0,0,0,0],"id":28,"left_children":[1,3,5,7,9,11,13,15,17,19,21,23,25,27,29,-1,-1,-1,-1,-1,-1,-1,-1,-1,-1,-1,-1,-1,-1,-1,-1],"loss_changes":[9.055489E4,1.0112285E4,2.1144074E4,1.4648945E3,1.3218687E3,5.330785E3,5.8940977E3,3.680371E2,3.7094922E2,8.837256E1,5.6856726E2,1.1887816E3,7.0224805E2,3.2783398E2,1.3635957E3,0E0,0E0,0E0,0E0,0E0,0E0,0E0,0E0,0E0,0E0,0E0,0E0,0E0,0E0,0E0,0E0],"parents":[2147483647,0,0,1,1,2,2,3,3,4,4,5,5,6,6,7,7,8,8,9,9,10,10,11,11,12,12,13,13,14,14],"right_children":[2,4,6,8,10,12,14,16,18,20,22,24,26,28,30,-1,-1,-1,-1,-1,-1,-1,-1,-1,-1,-1,-1,-1,-1,-1,-1],"split_conditions":[3.437E1,2.126E1,5.276E1,1.306E1,2.725E1,4.267E1,6.266E1,1.007E1,1.76E1,3.468667E1,2.7E1,3.784E1,4.783E1,5.799E1,1.7059087E2,-2.1658953E-1,-1.2917298E-1,-9.968289E-2,-8.156776E-2,-5.5492874E-2,-4.4000173E-1,-2.1902354E-2,1.6643009E0,9.843662E-4,2.923255E-2,5.2858084E-2,7.827626E-2,1.03158966E-1,1.370245E-1,1.9844423E-1,3.082067E-1],"split_indices":[6,6,8,6,6,6,6,6,6,8,1,6,8,6,10,0,0,0,0,0,0,0,0,0,0,0,0,0,0,0,0],"split_type":[0,0,0,0,0,0,0,0,0,0,0,0,0,0,0,0,0,0,0,0,0,0,0,0,0,0,0,0,0,0,0],"sum_hessian":[2.33674E5,1.02939E5,1.30735E5,5.5591E4,4.7348E4,1.07781E5,2.2954E4,9.985E3,4.5606E4,1.9987E4,2.7361E4,6.1221E4,4.656E4,1.6487E4,6.467E3,5.09E2,9.476E3,2.4622E4,2.0984E4,1.9982E4,5E0,2.736E4,1E0,2.5615E4,3.5606E4,2.9249E4,1.7311E4,1.2789E4,3.698E3,4.998E3,1.469E3],"tree_param":{"num_deleted":"0","num_feature":"14","num_nodes":"31","size_leaf_vector":"1"}},{"base_weights":[-1.0685385E-3,-5.9055454E-1,5.3495175E-1,-8.971156E-1,-2.8249192E-1,3.97837E-1,1.478528E0,-1.248246E0,-8.3583874E-1,-4.694695E-1,-1.4292331E-1,2.0372684E-1,6.308002E-1,1.2249635E0,2.295573E0,-2.0082255E-1,-1.2005385E-1,-9.02267E-2,-7.201791E-2,-4.6384953E-2,-2.3897469E-1,-2.2784045E-2,-7.9135215E-3,4.2117317E-3,2.7706707E-2,5.1618416E-2,7.7930324E-2,1.23006955E-1,-1.9355112E0,1.3830878E-1,2.770686E-1],"categories":[],"categories_nodes":[],"categories_segments":[],"categories_sizes":[],"default_left":[0,0,0,0,0,0,0,0,0,0,0,0,0,0,0,0,0,0,0,0,0,0,0,0,0,0,0,0,0,0,0],"id":29,"left_children":[1,3,5,7,9,11,13,15,17,19,21,23,25,27,29,-1,-1,-1,-1,-1,-1,-1,-1,-1,-1,-1,-1,-1,-1,-1,-1],"loss_changes":[7.384623E4,1.0511203E4,1.5835949E4,1.1992852E3,1.4487153E3,4.8328613E3,3.2145898E3,2.9804688E2,3.6430078E2,2.5496143E2,1.721789E2,6.9099976E2,8.2640234E2,1.2694277E3,1.5902734E3,0E0,0E0,0E0,0E0,0E0,0E0,0E0,0E0,0E0,0E0,0E0,0E0,0E0,0E0,0E0,0E0],"parents":[2147483647,0,0,1,1,2,2,3,3,4,4,5,5,6,6,7,7,8,8,9,9,10,10,11,11,12,12,13,13,14,14],"right_children":[2,4,6,8,10,12,14,16,18,20,22,24,26,28,30,-1,-1,-1,-1,-1,-1,-1,-1,-1,-1,-1,-1,-1,-1,-1,-1],"split_conditions":[3.554E1,2.124E1,5.517E1,1.268E1,2.836E1,4.324E1,6.783E1,1.007E1,1.8E1,2.86E1,3.195E1,3.792E1,4.888E1,7.983E1,2.023E3,-2.0082255E-1,-1.2005385E-1,-9.02267E-2,-7.201791E-2,-4.6384953E-2,-2.3897469E-1,-2.2784045E-2,-7.9135215E-3,4.2117317E-3,2.7706707E-2,5.1618416E-2,7.7930324E-2,1.23006955E-1,-1.9355112E0,1.3830878E-1,2.770686E-1],"split_indices":[7,7,7,7,7,7,7,7,7,8,7,7,7,6,3,0,0,0,0,0,0,0,0,0,0,0,0,0,0,0,0],"split_type":[0,0,0,0,0,0,0,0,0,0,0,0,0,0,0,0,0,0,0,0,0,0,0,0,0,0,0,0,0,0,0],"sum_hessian":[2.33706E5,1.11302E5,1.22404E5,5.5786E4,5.5516E4,1.06875E5,1.5529E4,8.286E3,4.75E4,2.3727E4,3.1789E4,5.83E4,4.8575E4,1.1853E4,3.676E3,4.87E2,7.799E3,3.0167E4,1.7333E4,2.3659E4,6.8E1,1.3635E4,1.8154E4,1.8199E4,4.0101E4,2.7418E4,2.1157E4,1.1851E4,2E0,1.26E3,2.416E3],"tree_param":{"num_deleted":"0","num_feature":"14","num_nodes":"31","size_leaf_vector":"1"}},{"base_weights":[3.874635E-4,-4.7953087E-1,5.3363585E-1,-7.475202E-1,-1.4401016E-1,4.2909923E-1,1.565342E0,-9.591727E-1,-6.4202327E-1,-2.7562562E-1,-4.929156E-2,2.8176934E-1,6.788829E-1,1.370208E0,2.3986526E0,-1.4294356E-1,-9.1808096E-2,-6.4435445E-2,4.218367E-1,-2.7456705E-2,-8.2446444E-1,-4.644887E-3,-1.501293E-1,2.8452877E-2,-4.3118867E-1,6.849652E-2,-5.81171E-1,1.3866632E-1,-1.0041813E0,2.0552781E-1,3.5988706E-1],"categories":[],"categories_nodes":[],"categories_segments":[],"categories_sizes":[],"default_left":[0,0,0,0,0,0,0,0,0,0,0,0,0,0,0,0,0,0,0,0,0,0,0,0,0,0,0,0,0,0,0],"id":30,"left_children":[1,3,5,7,9,11,13,15,17,19,21,23,25,27,29,-1,-1,-1,-1,-1,-1,-1,-1,-1,-1,-1,-1,-1,-1,-1,-1],"loss_changes":[5.9777043E4,1.1053984E4,1.1932293E4,1.5254805E3,6.8055396E2,3.6969824E3,1.6518906E3,4.3798047E2,5.195508E2,1.9046545E2,1.3096873E2,8.0226514E2,1.4753867E3,1.5631641E3,7.880029E2,0E0,0E0,0E0,0E0,0E0,0E0,0E0,0E0,0E0,0E0,0E0,0E0,0E0,0E0,0E0,0E0],"parents":[2147483647,0,0,1,1,2,2,3,3,4,4,5,5,6,6,7,7,8,8,9,9,10,10,11,11,12,12,13,13,14,14],"right_children":[2,4,6,8,10,12,14,16,18,20,22,24,26,28,30,-1,-1,-1,-1,-1,-1,-1,-1,-1,-1,-1,-1,-1,-1,-1,-1],"split_conditions":[3.714E1,2.486E1,5.799E1,1.583E1,3.147E1,4.572E1,7.983E1,1.05E1,7.9616604E0,2.2864609E2,3.771E1,6.420135E0,6.420135E0,7.9616604E0,1.7868034E2,-1.4294356E-1,-9.1808096E-2,-6.4435445E-2,4.218367E-1,-2.7456705E-2,-8.2446444E-1,-4.644887E-3,-1.501293E-1,2.8452877E-2,-4.3118867E-1,6.849652E-2,-5.81171E-1,1.3866632E-1,-1.0041813E0,2.0552781E-1,3.5988706E-1],"split_indices":[7,7,7,7,7,7,7,7,9,11,8,9,9,9,11,0,0,0,0,0,0,0,0,0,0,0,0,0,0,0,0],"split_type":[0,0,0,0,0,0,0,0,0,0,0,0,0,0,0,0,0,0,0,0,0,0,0,0,0,0,0,0,0,0,0],"sum_hessian":[2.33579E5,1.22937E5,1.10642E5,6.8346E4,5.4591E4,1.00464E5,1.0178E4,2.2732E4,4.5614E4,2.2845E4,3.1746E4,6.3193E4,3.7271E4,8.249E3,1.929E3,1.824E3,2.0908E4,4.5593E4,2.1E1,2.2843E4,2E0,3.1685E4,6.1E1,6.3156E4,3.7E1,3.7237E4,3.4E1,8.238E3,1.1E1,1.502E3,4.27E2],"tree_param":{"num_deleted":"0","num_feature":"14","num_nodes":"31","size_leaf_vector":"1"}},{"base_weights":[-8.999224E-4,-5.0553256E-1,4.0989012E-1,-7.3335713E-1,-2.5614592E-1,2.7183324E-1,1.0493361E0,-1.0263788E0,-6.813533E-1,-4.1020656E-1,-1.5606259E-1,1.0765701E-1,4.3588957E-1,8.1764406E-1,1.6506805E0,-1.6961901E-1,-9.8238796E-2,-6.795081E-2,-3.6142933E-1,4.261395E-1,-4.1422155E-2,-1.5391471E-2,-2.0646606E-1,9.588805E-4,1.822474E-2,4.412652E-2,-5.8922327E-1,8.160757E-2,1.334397E0,1.6677475E-1,-1.2096127E0],"categories":[],"categories_nodes":[],"categories_segments":[],"categories_sizes":[],"default_left":[0,0,0,0,0,0,0,0,0,0,0,0,0,0,0,0,0,0,0,0,0,0,0,0,0,0,0,0,0,0,0],"id":31,"left_children":[1,3,5,7,9,11,13,15,17,19,21,23,25,27,29,-1,-1,-1,-1,-1,-1,-1,-1,-1,-1,-1,-1,-1,-1,-1,-1],"loss_changes":[4.8390418E4,5.9514434E3,1.1359752E4,8.3347656E2,7.7105054E2,2.850502E3,3.182127E3,2.4139551E2,2.491543E2,3.711548E2,1.2396869E2,3.869516E2,1.8033701E3,3.1318945E2,1.5109199E3,0E0,0E0,0E0,0E0,0E0,0E0,0E0,0E0,0E0,0E0,0E0,0E0,0E0,0E0,0E0,0E0],"parents":[2147483647,0,0,1,1,2,2,3,3,4,4,5,5,6,6,7,7,8,8,9,9,10,10,11,11,12,12,13,13,14,14],"right_children":[2,4,6,8,10,12,14,16,18,20,22,24,26,28,30,-1,-1,-1,-1,-1,-1,-1,-1,-1,-1,-1,-1,-1,-1,-1,-1],"split_conditions":[3.467E1,2.094E1,5.278E1,1.268E1,2.7E1,4.186E1,6.266E1,1.007E1,2.171E1,1.891E1,6.420135E0,3.771E1,6.420135E0,7.417E1,7.9616604E0,-1.6961901E-1,-9.8238796E-2,-6.795081E-2,-3.6142933E-1,4.261395E-1,-4.1422155E-2,-1.5391471E-2,-2.0646606E-1,9.588805E-4,1.822474E-2,4.412652E-2,-5.8922327E-1,8.160757E-2,1.334397E0,1.6677475E-1,-1.2096127E0],"split_indices":[7,7,7,7,7,7,7,7,6,6,9,7,9,6,9,0,0,0,0,0,0,0,0,0,0,0,0,0,0,0,0],"split_type":[0,0,0,0,0,0,0,0,0,0,0,0,0,0,0,0,0,0,0,0,0,0,0,0,0,0,0,0,0,0,0],"sum_hessian":[2.33432E5,1.04751E5,1.28681E5,5.4741E4,5.001E4,1.05833E5,2.2848E4,8.248E3,4.6493E4,1.9693E4,3.0317E4,5.2898E4,5.2935E4,1.6495E4,6.353E3,5.06E2,7.742E3,4.6465E4,2.8E1,1.6E1,1.9677E4,3.0284E4,3.3E1,2.2853E4,3.0045E4,5.2891E4,4.4E1,1.6494E4,1E0,6.346E3,7E0],"tree_param":{"num_deleted":"0","num_feature":"14","num_nodes":"31","size_leaf_vector":"1"}},{"base_weights":[3.329397E-4,-4.6909526E-1,3.596954E-1,-6.673236E-1,-2.5211307E-1,2.0582205E-1,8.3804476E-1,-8.62628E-1,-6.050017E-1,-3.738032E-1,-1.5353195E-1,7.1151644E-2,3.4565142E-1,6.623942E-1,1.4225899E0,-1.5174764E-1,-8.36496E-2,-6.0350694E-2,-4.0889713E-1,8.9961547E-1,-3.7465367E-2,2.1751104E-1,-1.5492446E-2,7.229426E-3,-4.7792634E-1,1.6053835E0,3.446828E-2,6.660042E-2,-6.247228E-1,1.4390431E-1,-1.0919757E0],"categories":[],"categories_nodes":[],"categories_segments":[],"categories_sizes":[],"default_left":[0,0,0,0,0,0,0,0,0,0,0,0,0,0,0,0,0,0,0,0,0,0,0,0,0,0,0,0,0,0,0],"id":32,"left_children":[1,3,5,7,9,11,13,15,17,19,21,23,25,27,29,-1,-1,-1,-1,-1,-1,-1,-1,-1,-1,-1,-1,-1,-1,-1,-1],"loss_changes":[3.9323613E4,4.3472285E3,9.717996E3,6.42375E2,5.788384E2,1.8811421E3,3.2984395E3,2.1734277E2,2.0606934E2,1.7546802E2,8.678931E1,2.8237964E2,7.4016797E2,6.20541E2,1.5233193E3,0E0,0E0,0E0,0E0,0E0,0E0,0E0,0E0,0E0,0E0,0E0,0E0,0E0,0E0,0E0,0E0],"parents":[2147483647,0,0,1,1,2,2,3,3,4,4,5,5,6,6,7,7,8,8,9,9,10,10,11,11,12,12,13,13,14,14],"right_children":[2,4,6,8,10,12,14,16,18,20,22,24,26,28,30,-1,-1,-1,-1,-1,-1,-1,-1,-1,-1,-1,-1,-1,-1,-1,-1],"split_conditions":[3.408E1,2.043E1,5E1,1.4E1,2.7E1,4.118E1,6.167E1,1.007E1,2.171E1,1.213E1,2.558E1,9.930425E0,3.489E1,9.930425E0,7.9616604E0,-1.5174764E-1,-8.36496E-2,-6.0350694E-2,-4.0889713E-1,8.9961547E-1,-3.7465367E-2,2.1751104E-1,-1.5492446E-2,7.229426E-3,-4.7792634E-1,1.6053835E0,3.446828E-2,6.660042E-2,-6.247228E-1,1.4390431E-1,-1.0919757E0],"split_indices":[7,7,7,7,7,7,7,7,6,6,6,9,6,9,9,0,0,0,0,0,0,0,0,0,0,0,0,0,0,0,0],"split_type":[0,0,0,0,0,0,0,0,0,0,0,0,0,0,0,0,0,0,0,0,0,0,0,0,0,0,0,0,0,0,0],"sum_hessian":[2.33103E5,1.01073E5,1.3203E5,5.2818E4,4.8255E4,9.9897E4,3.2133E4,1.2774E4,4.0044E4,2.1595E4,2.666E4,5.0888E4,4.9009E4,2.471E4,7.423E3,4.88E2,1.2286E4,4.0028E4,1.6E1,1E0,2.1594E4,1.5E1,2.6645E4,5.0877E4,1.1E1,2E0,4.9007E4,2.4698E4,1.2E1,7.414E3,9E0],"tree_param":{"num_deleted":"0","num_feature":"14","num_nodes":"31","size_leaf_vector":"1"}},{"base_weights":[3.6815047E-4,-3.7906036E-1,3.6205393E-1,-5.908246E-1,-1.7676134E-1,2.674807E-1,9.9345505E-1,-7.5003636E-1,-5.2408254E-1,-2.9941317E-1,-8.210076E-2,1.3635539E-1,4.1879153E-1,8.6732614E-1,1.8895491E0,-1.0802215E-1,-7.087966E-2,-5.2556362E-2,6.812302E-1,4.5023686E-1,-3.0242577E-2,-6.115109E-1,-8.173191E-3,5.588819E-3,1.923814E-2,4.228595E-2,-4.055028E-1,8.73177E-2,-1.5297619E0,1.4991693E-1,3.5574147E-1],"categories":[],"categories_nodes":[],"categories_segments":[],"categories_sizes":[],"default_left":[0,0,0,0,0,0,0,0,0,0,0,0,0,0,0,0,0,0,0,0,0,0,0,0,0,0,0,0,0,0,0],"id":33,"left_children":[1,3,5,7,9,11,13,15,17,19,21,23,25,27,29,-1,-1,-1,-1,-1,-1,-1,-1,-1,-1,-1,-1,-1,-1,-1,-1],"loss_changes":[3.20835E4,4.8876914E3,7.1469805E3,5.9193945E2,6.774708E2,2.065378E3,1.7606211E3,2.234082E2,4.303916E2,3.6905493E2,7.2792114E1,2.5142383E2,8.8128613E2,1.3062432E3,1.2467344E3,0E0,0E0,0E0,0E0,0E0,0E0,0E0,0E0,0E0,0E0,0E0,0E0,0E0,0E0,0E0,0E0],"parents":[2147483647,0,0,1,1,2,2,3,3,4,4,5,5,6,6,7,7,8,8,9,9,10,10,11,11,12,12,13,13,14,14],"right_children":[2,4,6,8,10,12,14,16,18,20,22,24,26,28,30,-1,-1,-1,-1,-1,-1,-1,-1,-1,-1,-1,-1,-1,-1,-1,-1],"split_conditions":[3.58E1,2.124E1,5.517E1,1.483E1,2.886E1,4.324E1,7.983E1,1.05E1,7.9616604E0,1.862E1,1.583E1,3.877E1,6.420135E0,8.321E1,2.7E1,-1.0802215E-1,-7.087966E-2,-5.2556362E-2,6.812302E-1,4.5023686E-1,-3.0242577E-2,-6.115109E-1,-8.173191E-3,5.588819E-3,1.923814E-2,4.228595E-2,-4.055028E-1,8.73177E-2,-1.5297619E0,1.4991693E-1,3.5574147E-1],"split_indices":[7,7,7,7,7,7,7,7,9,6,6,7,9,6,1,0,0,0,0,0,0,0,0,0,0,0,0,0,0,0,0],"split_type":[0,0,0,0,0,0,0,0,0,0,0,0,0,0,0,0,0,0,0,0,0,0,0,0,0,0,0,0,0,0,0],"sum_hessian":[2.33785E5,1.14094E5,1.19691E5,5.5742E4,5.8352E4,1.041E5,1.5591E4,1.6462E4,3.928E4,2.5417E4,3.2935E4,5.5771E4,4.8329E4,1.3669E4,1.922E3,1.825E3,1.4637E4,3.9273E4,7E0,1.5E1,2.5402E4,1E0,3.2934E4,2.2893E4,3.2878E4,4.8286E4,4.3E1,1.3665E4,4E0,1.559E3,3.63E2],"tree_param":{"num_deleted":"0","num_feature":"14","num_nodes":"31","size_leaf_vector":"1"}},{"base_weights":[-3.862482E-4,-3.1749913E-1,3.47703E-1,-4.884832E-1,-9.372032E-2,2.757665E-1,1.0054682E0,-5.778478E-1,-3.5828725E-1,-9.431753E-2,1.5770305E0,1.9219026E-1,4.788099E-1,1.0219115E0,-8.536896E0,-7.883981E-2,-5.399087E-2,-3.5761565E-2,-9.654952E-1,-1.9535026E-2,-4.4396943E-3,1.9330582E-2,-4.486827E-1,4.8369244E-2,-6.0374355E-1,9.3972616E-2,2.2184508E-1,1.3179101E0,-1.0475513E0],"categories":[],"categories_nodes":[],"categories_segments":[],"categories_sizes":[],"default_left":[0,0,0,0,0,0,0,0,0,0,0,0,0,0,0,0,0,0,0,0,0,0,0,0,0,0,0,0,0],"id":34,"left_children":[1,3,5,7,9,11,13,15,17,19,-1,21,23,25,27,-1,-1,-1,-1,-1,-1,-1,-1,-1,-1,-1,-1,-1,-1],"loss_changes":[2.5797418E4,4.679282E3,5.2714414E3,8.0638086E2,5.033448E2,1.7041646E3,1.7320303E3,3.279414E2,1.7274048E2,2.6715146E2,0E0,3.7223608E2,9.346206E2,1.0761914E3,9.379386E2,0E0,0E0,0E0,0E0,0E0,0E0,0E0,0E0,0E0,0E0,0E0,0E0,0E0,0E0],"parents":[2147483647,0,0,1,1,2,2,3,3,4,4,5,5,6,6,7,7,8,8,9,9,11,11,12,12,13,13,14,14],"right_children":[2,4,6,8,10,12,14,16,18,20,-1,22,24,26,28,-1,-1,-1,-1,-1,-1,-1,-1,-1,-1,-1,-1,-1,-1],"split_conditions":[3.702E1,2.504E1,5.75E1,1.836E1,2.7E1,4.783E1,7.9616604E0,1.213E1,5.276E1,3.045E1,1.5770305E0,9.930425E0,6.420135E0,1.9143303E2,4.606E1,-7.883981E-2,-5.399087E-2,-3.5761565E-2,-9.654952E-1,-1.9535026E-2,-4.4396943E-3,1.9330582E-2,-4.486827E-1,4.8369244E-2,-6.0374355E-1,9.3972616E-2,2.2184508E-1,1.3179101E0,-1.0475513E0],"split_indices":[6,6,6,6,1,6,9,6,8,6,0,9,9,11,8,0,0,0,0,0,0,0,0,0,0,0,0,0,0],"split_type":[0,0,0,0,0,0,0,0,0,0,0,0,0,0,0,0,0,0,0,0,0,0,0,0,0,0,0,0,0],"sum_hessian":[2.33705E5,1.22294E5,1.11411E5,6.9324E4,5.297E4,1.00429E5,1.0982E4,4.1106E4,2.8218E4,5.2969E4,1E0,7.1146E4,2.9283E4,1.0964E4,1.8E1,6.273E3,3.4833E4,2.8217E4,1E0,1.7516E4,3.5453E4,7.113E4,1.6E1,2.9262E4,2.1E1,1.0261E4,7.03E2,1E0,1.7E1],"tree_param":{"num_deleted":"0","num_feature":"14","num_nodes":"29","size_leaf_vector":"1"}},{"base_weights":[-5.848288E-4,-2.8411868E-1,3.1580567E-1,-4.6476206E-1,-1.11102425E-1,2.6597348E-1,1.123427E0,-5.536398E-1,-3.8089323E-1,-1.1158117E-1,1.4981791E0,1.7517245E-1,4.550409E-1,1.0257293E0,2.6654353E0,-5.50466E-2,-3.2608485E-1,-3.7877765E-2,-3.2099774E-1,-2.1631671E-2,-4.445111E-3,1.0939068E-2,2.4259595E-2,4.6014514E-2,-5.6959707E-1,7.150859E-2,1.3591175E-1,1.5257655E-1,5.896356E-1],"categories":[],"categories_nodes":[],"categories_segments":[],"categories_sizes":[],"default_left":[0,0,0,0,0,0,0,0,0,0,0,0,0,0,0,0,0,0,0,0,0,0,0,0,0,0,0,0,0],"id":35,"left_children":[1,3,5,7,9,11,13,15,17,19,-1,21,23,25,27,-1,-1,-1,-1,-1,-1,-1,-1,-1,-1,-1,-1,-1,-1],"loss_changes":[2.0919951E4,3.8438135E3,4.4353633E3,4.4827832E2,4.5559296E2,1.7820967E3,9.621831E2,2.4917188E2,1.8407861E2,4.416717E2,0E0,3.110254E2,1.0600479E3,6.2300586E2,1.3939153E3,0E0,0E0,0E0,0E0,0E0,0E0,0E0,0E0,0E0,0E0,0E0,0E0,0E0,0E0],"parents":[2147483647,0,0,1,1,2,2,3,3,4,4,5,5,6,6,7,7,8,8,9,9,11,11,12,12,13,13,14,14],"right_children":[2,4,6,8,10,12,14,16,18,20,-1,22,24,26,28,-1,-1,-1,-1,-1,-1,-1,-1,-1,-1,-1,-1,-1,-1],"split_conditions":[3.714E1,2.257E1,6.266E1,1.691E1,2.7E1,4.783E1,1.9699521E2,1.998E1,2.61E1,3E1,1.4981791E0,4.197E1,7.9616604E0,3E0,2.6E1,-5.50466E-2,-3.2608485E-1,-3.7877765E-2,-3.2099774E-1,-2.1631671E-2,-4.445111E-3,1.0939068E-2,2.4259595E-2,4.6014514E-2,-5.6959707E-1,7.150859E-2,1.3591175E-1,1.5257655E-1,5.896356E-1],"split_indices":[6,6,6,6,1,6,11,8,8,6,0,6,9,5,1,0,0,0,0,0,0,0,0,0,0,0,0,0,0],"split_type":[0,0,0,0,0,0,0,0,0,0,0,0,0,0,0,0,0,0,0,0,0,0,0,0,0,0,0,0,0],"sum_hessian":[2.332E5,1.22986E5,1.10214E5,6.0166E4,6.282E4,1.0381E5,6.404E3,2.9208E4,3.0958E4,6.2819E4,1E0,7.0131E4,3.3679E4,6.024E3,3.8E2,2.9175E4,3.3E1,3.0936E4,2.2E1,2.4536E4,3.8283E4,3.5499E4,3.4632E4,3.3652E4,2.7E1,3.12E3,2.904E3,2.82E2,9.8E1],"tree_param":{"num_deleted":"0","num_feature":"14","num_nodes":"29","size_leaf_vector":"1"}},{"base_weights":[6.053033E-4,-2.4946298E-1,2.9662523E-1,-3.9442515E-1,-6.336209E-2,2.4286218E-1,9.4031936E-1,-4.703498E-1,-2.792613E-1,-6.1803102E-2,-2.944125E0,1.6102934E-1,3.9309615E-1,7.924548E-1,1.5688277E0,-6.7714624E-2,-4.3970726E-2,2.8453586E-1,-2.8245492E-2,-1.3255027E-2,-1.2683966E-3,9.370392E-2,-6.8877584E-1,-8.998979E-1,1.6145634E-2,-3.5112423E-1,3.9465394E-2,1.2484391E0,7.888372E-2,1.5163247E-1,7.744474E-1],"categories":[],"categories_nodes":[],"categories_segments":[],"categories_sizes":[],"default_left":[0,0,0,0,0,0,0,0,0,0,0,0,0,0,0,0,0,0,0,0,0,0,0,0,0,0,0,0,0,0,0],"id":36,"left_children":[1,3,5,7,9,11,13,15,17,19,21,23,25,27,29,-1,-1,-1,-1,-1,-1,-1,-1,-1,-1,-1,-1,-1,-1,-1,-1],"loss_changes":[1.7310125E4,3.4196274E3,3.7055537E3,6.2290625E2,2.4909467E2,1.2149478E3,7.6583496E2,2.7181543E2,2.8334473E2,1.9277959E2,4.6563077E2,2.51703E2,2.1334424E2,2.728623E2,4.9763794E2,0E0,0E0,0E0,0E0,0E0,0E0,0E0,0E0,0E0,0E0,0E0,0E0,0E0,0E0,0E0,0E0],"parents":[2147483647,0,0,1,1,2,2,3,3,4,4,5,5,6,6,7,7,8,8,9,9,10,10,11,11,12,12,13,13,14,14],"right_children":[2,4,6,8,10,12,14,16,18,20,22,24,26,28,30,-1,-1,-1,-1,-1,-1,-1,-1,-1,-1,-1,-1,-1,-1,-1,-1],"split_conditions":[3.755E1,2.558E1,6.015E1,1.864E1,3.84E1,4.72E1,1.7059087E2,1.192E1,1.79E1,3.225E1,3.554E1,2.676E1,4.537E1,4.606E1,9.651E1,-6.7714624E-2,-4.3970726E-2,2.8453586E-1,-2.8245492E-2,-1.3255027E-2,-1.2683966E-3,9.370392E-2,-6.8877584E-1,-8.998979E-1,1.6145634E-2,-3.5112423E-1,3.9465394E-2,1.2484391E0,7.888372E-2,1.5163247E-1,7.744474E-1],"split_indices":[7,7,7,7,6,7,11,7,6,7,8,6,6,8,6,0,0,0,0,0,0,0,0,0,0,0,0,0,0,0,0],"split_type":[0,0,0,0,0,0,0,0,0,0,0,0,0,0,0,0,0,0,0,0,0,0,0,0,0,0,0,0,0,0,0],"sum_hessian":[2.33839E5,1.26758E5,1.07081E5,7.1254E4,5.5504E4,9.8828E4,8.253E3,4.2941E4,2.8313E4,5.5475E4,2.9E1,6.398E4,3.4848E4,6.683E3,1.57E3,5.539E3,3.7402E4,2.8E1,2.8285E4,2.2732E4,3.2743E4,1.5E1,1.4E1,2E0,6.3978E4,1.3E1,3.4835E4,1E0,6.682E3,1.558E3,1.2E1],"tree_param":{"num_deleted":"0","num_feature":"14","num_nodes":"31","size_leaf_vector":"1"}},{"base_weights":[7.156885E-4,-2.8405464E-1,2.0748022E-1,-4.1649774E-1,-1.7777826E-1,1.2184684E-1,5.3212875E-1,-4.1857842E-1,3.0994506E0,-1.7830318E-1,1.4224628E0,2.8289549E-2,2.0489389E-1,4.5018667E-1,1.0763446E0,-5.8791615E-2,-3.9025992E-2,8.834308E-1,-6.959751E-1,-2.4398616E-2,-1.0241447E-2,2.9623176E-3,-2.2880447E-1,2.0720217E-2,-3.5414213E-1,4.5364764E-2,-3.6156437E-1,2.917846E-2,1.4867687E-1],"categories":[],"categories_nodes":[],"categories_segments":[],"categories_sizes":[],"default_left":[0,0,0,0,0,0,0,0,0,0,0,0,0,0,0,0,0,0,0,0,0,0,0,0,0,0,0,0,0],"id":37,"left_children":[1,3,5,7,9,11,13,15,17,19,-1,21,23,25,27,-1,-1,-1,-1,-1,-1,-1,-1,-1,-1,-1,-1,-1,-1],"loss_changes":[1.3758937E4,1.3834995E3,3.763601E3,3.214248E2,4.1484192E2,8.323187E2,1.2595688E3,2.0949658E2,1.5613745E3,2.7181494E2,0E0,1.5568549E2,4.9148096E2,3.472417E2,1.1900093E3,0E0,0E0,0E0,0E0,0E0,0E0,0E0,0E0,0E0,0E0,0E0,0E0,0E0,0E0],"parents":[2147483647,0,0,1,1,2,2,3,3,4,4,5,5,6,6,7,7,8,8,9,9,11,11,12,12,13,13,14,14],"right_children":[2,4,6,8,10,12,14,16,18,20,-1,22,24,26,28,-1,-1,-1,-1,-1,-1,-1,-1,-1,-1,-1,-1,-1,-1],"split_conditions":[3.344E1,1.876E1,5.112E1,7.9616604E0,2.7E1,4.06E1,6.783E1,1.213E1,2.32E1,2.662E1,1.4224628E0,4.442E1,6.420135E0,7.9616604E0,2.023E3,-5.8791615E-2,-3.9025992E-2,8.834308E-1,-6.959751E-1,-2.4398616E-2,-1.0241447E-2,2.9623176E-3,-2.2880447E-1,2.0720217E-2,-3.5414213E-1,4.5364764E-2,-3.6156437E-1,2.917846E-2,1.4867687E-1],"split_indices":[6,6,6,9,1,6,6,6,8,6,0,8,9,9,3,0,0,0,0,0,0,0,0,0,0,0,0,0,0],"split_type":[0,0,0,0,0,0,0,0,0,0,0,0,0,0,0,0,0,0,0,0,0,0,0,0,0,0,0,0,0],"sum_hessian":[2.33674E5,9.8295E4,1.35379E5,4.3759E4,5.4536E4,1.07124E5,2.8255E4,4.3734E4,2.5E1,5.4535E4,1E0,5.0375E4,5.6749E4,2.4559E4,3.696E3,6.263E3,3.7471E4,1.6E1,9E0,2.9232E4,2.5303E4,5.0347E4,2.8E1,5.6715E4,3.4E1,2.4539E4,2E1,1.27E3,2.426E3],"tree_param":{"num_deleted":"0","num_feature":"14","num_nodes":"29","size_leaf_vector":"1"}},{"base_weights":[-1.8612461E-4,-2.307078E-1,2.0960683E-1,-3.6501154E-1,-1.2022739E-1,1.4508452E-1,5.5749124E-1,-6.4824176E-1,-3.4877893E-1,-1.9230933E-1,-5.813803E-2,6.684478E-2,2.3731056E-1,5.64273E-1,-6.297906E0,-1.0215979E-1,-5.6990225E-2,-3.4774926E-2,-2.6618585E-1,8.650684E-1,-1.9324094E-2,3.9580262E-1,-5.8992896E-3,6.7885704E-3,-7.206387E-1,2.383077E-2,-7.6740414E-1,4.6132866E-2,9.996893E-2,9.559253E-1,-8.7257636E-1],"categories":[],"categories_nodes":[],"categories_segments":[],"categories_sizes":[],"default_left":[0,0,0,0,0,0,0,0,0,0,0,0,0,0,0,0,0,0,0,0,0,0,0,0,0,0,0,0,0,0,0],"id":38,"left_children":[1,3,5,7,9,11,13,15,17,19,21,23,25,27,29,-1,-1,-1,-1,-1,-1,-1,-1,-1,-1,-1,-1,-1,-1,-1,-1],"loss_changes":[1.1302254E4,1.6521602E3,2.74627E3,2.3082959E2,2.7342084E2,7.447283E2,8.9350146E2,7.906152E1,1.12285645E2,2.3458313E2,1.1292763E2,4.232552E2,3.755276E2,8.567466E2,8.148912E2,0E0,0E0,0E0,0E0,0E0,0E0,0E0,0E0,0E0,0E0,0E0,0E0,0E0,0E0,0E0,0E0],"parents":[2147483647,0,0,1,1,2,2,3,3,4,4,5,5,6,6,7,7,8,8,9,9,10,10,11,11,12,12,13,13,14,14],"right_children":[2,4,6,8,10,12,14,16,18,20,22,24,26,28,30,-1,-1,-1,-1,-1,-1,-1,-1,-1,-1,-1,-1,-1,-1,-1,-1],"split_conditions":[3.554E1,1.998E1,5.386E1,1.095E1,2.817E1,4.3E1,9.930425E0,1.007E1,2.153E1,1.418E1,2.32E1,4.72E1,5.593E1,6.783E1,2.9686334E2,-1.0215979E-1,-5.6990225E-2,-3.4774926E-2,-2.6618585E-1,8.650684E-1,-1.9324094E-2,3.9580262E-1,-5.8992896E-3,6.7885704E-3,-7.206387E-1,2.383077E-2,-7.6740414E-1,4.6132866E-2,9.996893E-2,9.559253E-1,-8.7257636E-1],"split_indices":[7,7,7,7,7,7,9,8,6,6,8,6,6,6,13,0,0,0,0,0,0,0,0,0,0,0,0,0,0,0,0],"split_type":[0,0,0,0,0,0,0,0,0,0,0,0,0,0,0,0,0,0,0,0,0,0,0,0,0,0,0,0,0,0,0],"sum_hessian":[2.337E5,1.11349E5,1.22351E5,5.0255E4,6.1094E4,1.0321E5,1.9141E4,2.722E3,4.7533E4,2.8271E4,3.2823E4,5.584E4,4.737E4,1.9123E4,1.8E1,4.7E2,2.252E3,4.7513E4,2E1,2E0,2.8269E4,6E0,3.2817E4,5.5833E4,7E0,4.7365E4,5E0,1.5468E4,3.655E3,2E0,1.6E1],"tree_param":{"num_deleted":"0","num_feature":"14","num_nodes":"31","size_leaf_vector":"1"}},{"base_weights":[-8.688333E-4,-1.8335187E-1,2.1572937E-1,-2.9842493E-1,-5.9432764E-2,1.7159879E-1,6.4265376E-1,-4.1794878E-1,-2.5877562E-1,-5.906315E-2,-7.548962E-1,1.7379297E-1,-2.8157938E0,6.5238816E-1,-6.879037E0,-8.946645E-2,-4.029762E-2,-2.974445E-2,-2.106153E-2,-1.2663743E-2,-2.3611295E-3,1.05187325E-2,2.6701717E-2,-4.2218968E-1,5.237667E-1,6.0029108E-2,1.9704136E-1,6.9185907E-1,-1.1710185E0],"categories":[],"categories_nodes":[],"categories_segments":[],"categories_sizes":[],"default_left":[0,0,0,0,0,0,0,0,0,0,0,0,0,0,0,0,0,0,0,0,0,0,0,0,0,0,0,0,0],"id":39,"left_children":[1,3,5,7,9,11,13,15,17,19,-1,21,23,25,27,-1,-1,-1,-1,-1,-1,-1,-1,-1,-1,-1,-1,-1,-1],"loss_changes":[9.21877E3,1.8050806E3,2.0092017E3,3.1094385E2,1.6828395E2,6.340762E2,7.3601807E2,1.1632617E2,9.1728516E1,1.4601088E2,0E0,6.1772656E2,8.261164E2,6.8402783E2,9.475767E2,0E0,0E0,0E0,0E0,0E0,0E0,0E0,0E0,0E0,0E0,0E0,0E0,0E0,0E0],"parents":[2147483647,0,0,1,1,2,2,3,3,4,4,5,5,6,6,7,7,8,8,9,9,11,11,12,12,13,13,14,14],"right_children":[2,4,6,8,10,12,14,16,18,20,-1,22,24,26,28,-1,-1,-1,-1,-1,-1,-1,-1,-1,-1,-1,-1,-1,-1],"split_conditions":[3.755E1,2.438E1,5.799E1,1.483E1,2.2864609E2,6.420135E0,9.930425E0,1.007E1,1.876E1,3.045E1,-7.548962E-1,4.52E1,9E0,1.9699521E2,1.3867773E2,-8.946645E-2,-4.029762E-2,-2.974445E-2,-2.106153E-2,-1.2663743E-2,-2.3611295E-3,1.05187325E-2,2.6701717E-2,-4.2218968E-1,5.237667E-1,6.0029108E-2,1.9704136E-1,6.9185907E-1,-1.1710185E0],"split_indices":[7,7,7,7,11,9,9,7,7,7,0,7,4,11,10,0,0,0,0,0,0,0,0,0,0,0,0,0,0],"split_type":[0,0,0,0,0,0,0,0,0,0,0,0,0,0,0,0,0,0,0,0,0,0,0,0,0,0,0,0,0],"sum_hessian":[2.33234E5,1.26586E5,1.06648E5,6.5635E4,6.0951E4,9.6658E4,9.99E3,1.6347E4,4.9288E4,6.0949E4,2E0,9.6588E4,7E1,9.978E3,1.2E1,4.96E2,1.5851E4,2.7335E4,2.1953E4,2.0972E4,3.9977E4,5.5642E4,4.0946E4,6E1,1E1,9.6E3,3.78E2,3E0,9E0],"tree_param":{"num_deleted":"0","num_feature":"14","num_nodes":"29","size_leaf_vector":"1"}},{"base_weights":[1.2439076E-4,-1.630095E-1,1.9378428E-1,-2.7449062E-1,-6.1958138E-2,1.5799965E-1,6.240449E-1,-2.729074E-1,-3.155618E0,-6.2371615E-2,1.3712577E0,1.5932284E-1,-5.2813716E0,6.380191E-1,-6.561023E0,-2.7552595E-2,6.043734E-1,-1.7664399E-2,-5.9489673E-1,-6.153961E-3,-3.3114418E-1,1.1050387E-2,2.7030027E-2,2.95416E-1,-7.076186E-1,6.245322E-2,6.399533E-1,3.076137E-1,-1.1221199E0],"categories":[],"categories_nodes":[],"categories_segments":[],"categories_sizes":[],"default_left":[0,0,0,0,0,0,0,0,0,0,0,0,0,0,0,0,0,0,0,0,0,0,0,0,0,0,0,0,0],"id":40,"left_children":[1,3,5,7,9,11,13,15,17,19,-1,21,23,25,27,-1,-1,-1,-1,-1,-1,-1,-1,-1,-1,-1,-1,-1,-1],"loss_changes":[7.3766885E3,1.4277043E3,1.6436394E3,2.7400537E2,3.7948315E2,7.1022974E2,8.272114E2,9.978374E2,2.7355255E2,1.7950186E2,0E0,5.3384033E2,3.756541E2,6.317837E2,7.5309186E2,0E0,0E0,0E0,0E0,0E0,0E0,0E0,0E0,0E0,0E0,0E0,0E0,0E0,0E0],"parents":[2147483647,0,0,1,1,2,2,3,3,4,4,5,5,6,6,7,7,8,8,9,9,11,11,12,12,13,13,14,14],"right_children":[2,4,6,8,10,12,14,16,18,20,-1,22,24,26,28,-1,-1,-1,-1,-1,-1,-1,-1,-1,-1,-1,-1,-1,-1],"split_conditions":[3.757E1,2.257E1,6.017E1,2.61E1,2.7E1,9.930425E0,9.930425E0,6.420135E0,6.420135E0,9.930425E0,1.3712577E0,4.833E1,8E0,9.651E1,1.3867773E2,-2.7552595E-2,6.043734E-1,-1.7664399E-2,-5.9489673E-1,-6.153961E-3,-3.3114418E-1,1.1050387E-2,2.7030027E-2,2.95416E-1,-7.076186E-1,6.245322E-2,6.399533E-1,3.076137E-1,-1.1221199E0],"split_indices":[6,6,6,8,1,9,9,9,9,9,0,6,1,6,10,0,0,0,0,0,0,0,0,0,0,0,0,0,0],"split_type":[0,0,0,0,0,0,0,0,0,0,0,0,0,0,0,0,0,0,0,0,0,0,0,0,0,0,0,0,0],"sum_hessian":[2.33493E5,1.26735E5,1.06758E5,6.0257E4,6.6478E4,9.8562E4,8.196E3,6.0225E4,3.2E1,6.6477E4,1E0,9.8539E4,2.3E1,8.181E3,1.5E1,6.0201E4,2.4E1,1.6E1,1.6E1,6.6461E4,1.6E1,6.8436E4,3.0103E4,4E0,1.9E1,8.163E3,1.8E1,5E0,1E1],"tree_param":{"num_deleted":"0","num_feature":"14","num_nodes":"29","size_leaf_vector":"1"}},{"base_weights":[-2.5363633E-4,-1.978659E-1,1.3319442E-1,-2.8074273E-1,-1.2587276E-1,7.565385E-2,3.5863388E-1,-5.064661E-1,-2.6590857E-1,2.5989225E0,-1.2700418E-1,7.734371E-2,-2.4311373E0,3.2977727E-1,1.2222756E0,-4.6326004E-2,-1.0145529E-1,4.6482205E-1,-2.662604E-2,2.484139E-2,6.387448E-1,-1.2617861E-2,-2.8951642E-1,7.3012076E-3,9.852486E-2,6.811001E-1,-4.6639395E-1,3.3285957E-2,-4.1437364E-1,5.0413907E-2,2.4135457E-1],"categories":[],"categories_nodes":[],"categories_segments":[],"categories_sizes":[],"default_left":[0,0,0,0,0,0,0,0,0,0,0,0,0,0,0,0,0,0,0,0,0,0,0,0,0,0,0,0,0,0,0],"id":41,"left_children":[1,3,5,7,9,11,13,15,17,19,21,23,25,27,29,-1,-1,-1,-1,-1,-1,-1,-1,-1,-1,-1,-1,-1,-1,-1,-1],"loss_changes":[6.1714136E3,5.6280835E2,1.8120195E3,1.4669702E2,1.559635E2,4.7161206E2,7.074746E2,5.886743E1,7.238037E1,1.8541743E2,1.149588E2,4.372967E2,1.5794558E3,3.8038647E2,7.841272E2,0E0,0E0,0E0,0E0,0E0,0E0,0E0,0E0,0E0,0E0,0E0,0E0,0E0,0E0,0E0,0E0],"parents":[2147483647,0,0,1,1,2,2,3,3,4,4,5,5,6,6,7,7,8,8,9,9,10,10,11,11,12,12,13,13,14,14],"right_children":[2,4,6,8,10,12,14,16,18,20,22,24,26,28,30,-1,-1,-1,-1,-1,-1,-1,-1,-1,-1,-1,-1,-1,-1,-1,-1],"split_conditions":[3.225E1,1.876E1,5.108E1,1.095E1,1.737E1,6.420135E0,8.321E1,1.4E1,1.007E1,4.1165075E0,9.930425E0,1.5299782E0,3.839E1,9.930425E0,2.7E1,-4.6326004E-2,-1.0145529E-1,4.6482205E-1,-2.662604E-2,2.484139E-2,6.387448E-1,-1.2617861E-2,-2.8951642E-1,7.3012076E-3,9.852486E-2,6.811001E-1,-4.6639395E-1,3.3285957E-2,-4.1437364E-1,5.0413907E-2,2.4135457E-1],"split_indices":[7,7,7,7,8,9,7,1,8,9,9,9,8,9,1,0,0,0,0,0,0,0,0,0,0,0,0,0,0,0,0],"split_type":[0,0,0,0,0,0,0,0,0,0,0,0,0,0,0,0,0,0,0,0,0,0,0,0,0,0,0,0,0,0,0],"sum_hessian":[2.34021E5,9.4332E4,1.39689E5,4.385E4,5.0482E4,1.11286E5,2.8403E4,2.702E3,4.1148E4,2E1,5.0462E4,1.11212E5,7.4E1,2.7486E4,9.17E2,2.492E3,2.1E2,2E0,4.1146E4,1.3E1,7E0,5.0448E4,1.4E1,1.10685E5,5.27E2,1.4E1,6E1,2.7468E4,1.8E1,5.73E2,3.44E2],"tree_param":{"num_deleted":"0","num_feature":"14","num_nodes":"31","size_leaf_vector":"1"}},{"base_weights":[4.4952776E-5,-1.296226E-1,1.6668019E-1,-2.0910232E-1,-3.0402543E-2,1.3970238E-1,5.686717E-1,-3.3070925E-1,-1.833339E-1,-3.0836882E-2,1.2686398E0,1.4116636E-1,-2.9137428E0,5.8145934E-1,-7.7055044E0,-3.2835525E-2,-3.630619E-1,-1.826128E-2,-3.5106254E-1,1.9933526E-1,-3.2394943E-3,7.558405E-3,2.0049924E-2,6.13622E-1,-3.9217445E-1,3.3035178E-2,8.412089E-2,-3.5361003E-2,-1.0805801E0],"categories":[],"categories_nodes":[],"categories_segments":[],"categories_sizes":[],"default_left":[0,0,0,0,0,0,0,0,0,0,0,0,0,0,0,0,0,0,0,0,0,0,0,0,0,0,0,0,0],"id":42,"left_children":[1,3,5,7,9,11,13,15,17,19,-1,21,23,25,27,-1,-1,-1,-1,-1,-1,-1,-1,-1,-1,-1,-1,-1,-1],"loss_changes":[5.0523423E3,1.0370005E3,1.1096414E3,2.2873413E2,3.2344412E2,4.290681E2,6.853474E2,9.7966064E1,1.4391895E2,1.8452136E2,0E0,3.729474E2,4.43694E2,4.188584E2,2.241095E2,0E0,0E0,0E0,0E0,0E0,0E0,0E0,0E0,0E0,0E0,0E0,0E0,0E0,0E0],"parents":[2147483647,0,0,1,1,2,2,3,3,4,4,5,5,6,6,7,7,8,8,9,9,11,11,12,12,13,13,14,14],"right_children":[2,4,6,8,10,12,14,16,18,20,-1,22,24,26,28,-1,-1,-1,-1,-1,-1,-1,-1,-1,-1,-1,-1,-1,-1],"split_conditions":[3.816E1,2.662E1,6.266E1,1.398E1,2.7E1,7.9616604E0,7.9616604E0,1.876E1,3.174E1,2.438E1,1.2686398E0,4.442E1,5.251667E2,7E0,7.417E1,-3.2835525E-2,-3.630619E-1,-1.826128E-2,-3.5106254E-1,1.9933526E-1,-3.2394943E-3,7.558405E-3,2.0049924E-2,6.13622E-1,-3.9217445E-1,3.3035178E-2,8.412089E-2,-3.5361003E-2,-1.0805801E0],"split_indices":[6,6,6,6,1,9,9,8,8,8,0,6,13,4,6,0,0,0,0,0,0,0,0,0,0,0,0,0,0],"split_type":[0,0,0,0,0,0,0,0,0,0,0,0,0,0,0,0,0,0,0,0,0,0,0,0,0,0,0,0,0],"sum_hessian":[2.33825E5,1.31499E5,1.02326E5,7.3012E4,5.8487E4,9.5892E4,6.434E3,1.2764E4,6.0248E4,5.8486E4,1E0,9.5847E4,4.5E1,6.425E3,9E0,1.2756E4,8E0,6.0236E4,1.2E1,4.4E1,5.8442E4,4.5527E4,5.032E4,4E0,4.1E1,3.268E3,3.157E3,3E0,6E0],"tree_param":{"num_deleted":"0","num_feature":"14","num_nodes":"29","size_leaf_vector":"1"}},{"base_weights":[-2.1245006E-4,-1.1227385E-1,1.5778567E-1,-1.9268137E-1,-2.9296357E-2,1.3389349E-1,5.521958E-1,-2.5619E-1,-1.5107879E-1,-2.9654728E-2,1.2052078E0,1.3506731E-1,-3.3343294E0,4.609739E-1,1.4961829E0,-2.5453964E-2,-2.9096696E-1,-1.522393E-2,5.2791613E-1,-2.811314E-3,-1.6497625E-1,9.884141E-3,2.1963483E-2,7.1079415E-1,-4.7069994E-1,4.743875E-2,-9.281821E-1,3.5342906E-2,3.3822903E-1],"categories":[],"categories_nodes":[],"categories_segments":[],"categories_sizes":[],"default_left":[0,0,0,0,0,0,0,0,0,0,0,0,0,0,0,0,0,0,0,0,0,0,0,0,0,0,0,0,0],"id":43,"left_children":[1,3,5,7,9,11,13,15,17,19,-1,21,23,25,27,-1,-1,-1,-1,-1,-1,-1,-1,-1,-1,-1,-1,-1,-1],"loss_changes":[4.1411016E3,9.129662E2,9.144778E2,1.8357275E2,2.9192703E2,3.7299365E2,4.7663074E2,1.19705444E2,2.6542133E2,1.6814296E2,0E0,2.8023035E2,4.7780463E2,6.651505E2,1.0506184E3,0E0,0E0,0E0,0E0,0E0,0E0,0E0,0E0,0E0,0E0,0E0,0E0,0E0,0E0],"parents":[2147483647,0,0,1,1,2,2,3,3,4,4,5,5,6,6,7,7,8,8,9,9,11,11,12,12,13,13,14,14],"right_children":[2,4,6,8,10,12,14,16,18,20,-1,22,24,26,28,-1,-1,-1,-1,-1,-1,-1,-1,-1,-1,-1,-1,-1,-1],"split_conditions":[3.877E1,2.504E1,6.443E1,1.664E1,2.7E1,9.930425E0,2.7E1,2.171E1,7.9616604E0,6.420135E0,1.2052078E0,4.978E1,3.295E1,7.9616604E0,1.9143303E2,-2.5453964E-2,-2.9096696E-1,-1.522393E-2,5.2791613E-1,-2.811314E-3,-1.6497625E-1,9.884141E-3,2.1963483E-2,7.1079415E-1,-4.7069994E-1,4.743875E-2,-9.281821E-1,3.5342906E-2,3.3822903E-1],"split_indices":[6,6,6,6,1,9,1,8,9,9,0,6,8,9,11,0,0,0,0,0,0,0,0,0,0,0,0,0,0],"split_type":[0,0,0,0,0,0,0,0,0,0,0,0,0,0,0,0,0,0,0,0,0,0,0,0,0,0,0,0,0],"sum_hessian":[2.33886E5,1.36835E5,9.7051E4,6.9493E4,6.7342E4,9.1509E4,5.542E3,2.7503E4,4.199E4,6.7341E4,1E0,9.1479E4,3E1,5.055E3,4.87E2,2.7487E4,1.6E1,4.1982E4,8E0,6.7278E4,6.3E1,6.4046E4,2.7433E4,3E0,2.7E1,5.049E3,6E0,3.04E2,1.83E2],"tree_param":{"num_deleted":"0","num_feature":"14","num_nodes":"29","size_leaf_vector":"1"}},{"base_weights":[-8.559397E-5,-9.8709024E-2,1.4881471E-1,-1.9353363E-1,-3.8249534E-2,1.2265718E-1,4.4957462E-1,-1.9214152E-1,-3.1146746E0,2.1795406E0,-3.954185E-2,1.1449474E0,1.2239123E-1,4.3791372E-1,5.5209965E-1,-3.515319E-2,-1.7783849E-2,-6.3075386E-2,-5.1986957E-1,4.8475647E-1,-3.7929836E-1,-9.212797E-3,-8.3687063E-4,1.1685034E-2,5.7258155E-2,1.830384E-2,5.960455E-2],"categories":[],"categories_nodes":[],"categories_segments":[],"categories_sizes":[],"default_left":[0,0,0,0,0,0,0,0,0,0,0,0,0,0,0,0,0,0,0,0,0,0,0,0,0,0,0],"id":44,"left_children":[1,3,5,7,9,11,13,15,17,19,21,-1,23,25,-1,-1,-1,-1,-1,-1,-1,-1,-1,-1,-1,-1,-1],"loss_changes":[3.4309583E3,8.057495E2,7.322964E2,2.2192822E2,2.4607147E2,2.565846E2,4.3803687E2,1.2463159E2,1.3131104E2,8.1512866E2,1.406113E2,0E0,2.1356311E2,2.9942944E2,0E0,0E0,0E0,0E0,0E0,0E0,0E0,0E0,0E0,0E0,0E0,0E0,0E0],"parents":[2147483647,0,0,1,1,2,2,3,3,4,4,5,5,6,6,7,7,8,8,9,9,10,10,12,12,13,13],"right_children":[2,4,6,8,10,12,14,16,18,20,22,-1,24,26,-1,-1,-1,-1,-1,-1,-1,-1,-1,-1,-1,-1,-1],"split_conditions":[3.921E1,2.094E1,6.167E1,2.192E1,2.012E1,2.961E1,9.651E1,1.161E1,1.946E1,2.32E1,3.045E1,1.1449474E0,9.3530744E-1,2.023E3,5.5209965E-1,-3.515319E-2,-1.7783849E-2,-6.3075386E-2,-5.1986957E-1,4.8475647E-1,-3.7929836E-1,-9.212797E-3,-8.3687063E-4,1.1685034E-2,5.7258155E-2,1.830384E-2,5.960455E-2],"split_indices":[7,7,7,6,6,6,6,7,8,8,7,0,9,3,0,0,0,0,0,0,0,0,0,0,0,0,0],"split_type":[0,0,0,0,0,0,0,0,0,0,0,0,0,0,0,0,0,0,0,0,0,0,0,0,0,0,0],"sum_hessian":[2.33634E5,1.40545E5,9.3089E4,5.472E4,8.5825E4,8.5642E4,7.447E3,5.4695E4,2.5E1,4.9E1,8.5776E4,1E0,8.5641E4,7.431E3,1.6E1,4.502E3,5.0193E4,1.2E1,1.3E1,3.4E1,1.5E1,3.1923E4,5.3853E4,8.4601E4,1.04E3,2.846E3,4.585E3],"tree_param":{"num_deleted":"0","num_feature":"14","num_nodes":"27","size_leaf_vector":"1"}},{"base_weights":[3.2574715E-4,-1.1681637E-1,1.03623256E-1,-1.9121431E-1,-6.8688E-2,6.905237E-2,3.029335E-1,-6.2441814E-1,-1.8616806E-1,2.726764E0,-6.986424E-2,2.6189147E-2,1.1992031E-1,2.6921213E-1,9.1726357E-1,-4.7632832E-2,-1.2271339E-1,-2.3211721E-2,-1.6109465E-2,-4.6745163E-1,3.4758824E-1,-6.9079227E-3,-5.281464E-1,2.7028224E-3,-2.070055E-1,1.2165419E-2,-1.7462736E-1,2.7043244E-2,-1.0485708E0,2.7964884E-2,1.889814E-1],"categories":[],"categories_nodes":[],"categories_segments":[],"categories_sizes":[],"default_left":[0,0,0,0,0,0,0,0,0,0,0,0,0,0,0,0,0,0,0,0,0,0,0,0,0,0,0,0,0,0,0],"id":45,"left_children":[1,3,5,7,9,11,13,15,17,19,21,23,25,27,29,-1,-1,-1,-1,-1,-1,-1,-1,-1,-1,-1,-1,-1,-1,-1,-1],"loss_changes":[2.828574E3,3.9220435E2,8.558894E2,9.3940796E1,2.1889468E2,2.3080804E2,3.8012048E2,4.3597244E1,4.896399E1,1.714922E2,2.7164377E2,1.0110727E2,1.568515E2,2.3129004E2,5.91679E2,0E0,0E0,0E0,0E0,0E0,0E0,0E0,0E0,0E0,0E0,0E0,0E0,0E0,0E0,0E0,0E0],"parents":[2147483647,0,0,1,1,2,2,3,3,4,4,5,5,6,6,7,7,8,8,9,9,10,10,11,11,12,12,13,13,14,14],"right_children":[2,4,6,8,10,12,14,16,18,20,22,24,26,28,30,-1,-1,-1,-1,-1,-1,-1,-1,-1,-1,-1,-1,-1,-1,-1,-1],"split_conditions":[3.529E1,1.864E1,5.427E1,1.007E1,1.79E1,4.3E1,8.321E1,1.040128E2,1.46E1,3.8233334E2,9.930425E0,7.9616604E0,6.420135E0,3.8774845E1,8E0,-4.7632832E-2,-1.2271339E-1,-2.3211721E-2,-1.6109465E-2,-4.6745163E-1,3.4758824E-1,-6.9079227E-3,-5.281464E-1,2.7028224E-3,-2.070055E-1,1.2165419E-2,-1.7462736E-1,2.7043244E-2,-1.0485708E0,2.7964884E-2,1.889814E-1],"split_indices":[7,7,7,7,6,7,7,10,7,13,9,9,9,9,4,0,0,0,0,0,0,0,0,0,0,0,0,0,0,0,0],"split_type":[0,0,0,0,0,0,0,0,0,0,0,0,0,0,0,0,0,0,0,0,0,0,0,0,0,0,0,0,0,0,0],"sum_hessian":[2.33755E5,1.09537E5,1.24218E5,4.3025E4,6.6512E4,1.05858E5,1.836E4,4.94E2,4.2531E4,2.7E1,6.6485E4,5.745E4,4.8408E4,1.7406E4,9.54E2,3.98E2,9.6E1,1.5012E4,2.7519E4,2E0,2.5E1,6.6476E4,9E0,5.7428E4,2.2E1,4.8364E4,4.4E1,1.7405E4,1E0,5.77E2,3.77E2],"tree_param":{"num_deleted":"0","num_feature":"14","num_nodes":"31","size_leaf_vector":"1"}},{"base_weights":[3.216945E-4,-7.87648E-2,1.23483375E-1,-1.4252807E-1,-1.5023695E-2,1.072827E-1,5.0764805E-1,-1.4166728E-1,-3.360401E0,3.3573124E0,-1.601791E-2,1.0769519E-1,-1.1996162E0,-1.103119E-1,8.285962E-1,-1.4257573E-2,2.4501048E-1,-7.606911E-2,-8.866324E-1,7.0156026E-1,-1.3683672E-1,4.360702E-1,-1.644792E-3,8.1090134E-1,1.0732929E-2,-4.5030814E-2,4.344671E-2,6.8193115E-2,2.6305333E-1],"categories":[],"categories_nodes":[],"categories_segments":[],"categories_sizes":[],"default_left":[0,0,0,0,0,0,0,0,0,0,0,0,0,0,0,0,0,0,0,0,0,0,0,0,0,0,0,0,0],"id":46,"left_children":[1,3,5,7,9,11,13,15,17,19,21,23,-1,25,27,-1,-1,-1,-1,-1,-1,-1,-1,-1,-1,-1,-1,-1,-1],"loss_changes":[2.2784219E3,5.7894293E2,5.6922363E2,1.9677185E2,2.3889583E2,4.3948352E2,7.341222E2,1.679707E2,2.6521768E2,3.72646E2,1.3410268E2,2.5608447E2,0E0,2.346877E2,6.419951E2,0E0,0E0,0E0,0E0,0E0,0E0,0E0,0E0,0E0,0E0,0E0,0E0,0E0,0E0],"parents":[2147483647,0,0,1,1,2,2,3,3,4,4,5,5,6,6,7,7,8,8,9,9,10,10,11,11,13,13,14,14],"right_children":[2,4,6,8,10,12,14,16,18,20,22,24,-1,26,28,-1,-1,-1,-1,-1,-1,-1,-1,-1,-1,-1,-1,-1,-1],"split_conditions":[3.945E1,2.558E1,6.783E1,2.756E1,2.45E1,3.8774845E1,2.023E3,7.9616604E0,2.257E1,2.676E1,2.192E1,3.489E1,-1.1996162E0,1.4596684E2,2.7E1,-1.4257573E-2,2.4501048E-1,-7.606911E-2,-8.866324E-1,7.0156026E-1,-1.3683672E-1,4.360702E-1,-1.644792E-3,8.1090134E-1,1.0732929E-2,-4.5030814E-2,4.344671E-2,6.8193115E-2,2.6305333E-1],"split_indices":[7,7,7,6,6,9,3,9,8,8,8,6,0,11,1,0,0,0,0,0,0,0,0,0,0,0,0,0,0],"split_type":[0,0,0,0,0,0,0,0,0,0,0,0,0,0,0,0,0,0,0,0,0,0,0,0,0,0,0,0,0],"sum_hessian":[2.33912E5,1.42444E5,9.1468E4,7.1209E4,7.1235E4,8.7768E4,3.7E3,7.1191E4,1.8E1,2E1,7.1215E4,8.7766E4,2E0,1.265E3,2.435E3,7.1167E4,2.4E1,1.3E1,5E0,1.1E1,9E0,6E0,7.1209E4,3E0,8.7763E4,7.79E2,4.86E2,2.253E3,1.82E2],"tree_param":{"num_deleted":"0","num_feature":"14","num_nodes":"29","size_leaf_vector":"1"}},{"base_weights":[-1.5488623E-4,-1.0806169E-1,7.2717495E-2,-1.7048657E-1,-7.469519E-2,4.3023493E-2,2.2373864E-1,-1.6888209E-1,-1.5494425E0,-7.442642E-2,-5.548044E-1,4.340419E-2,-5.5076723E0,2.0839503E-1,1.0956669E0,-3.544137E-2,-1.5792068E-2,-2.1981154E-2,-2.8675047E-1,-7.3852018E-3,-2.4189949E-1,2.669526E-1,4.277266E-3,-8.31398E-2,-8.147158E-1,7.7150077E-1,2.0738563E-2,3.7875384E-2,3.3949113E-1],"categories":[],"categories_nodes":[],"categories_segments":[],"categories_sizes":[],"default_left":[0,0,0,0,0,0,0,0,0,0,0,0,0,0,0,0,0,0,0,0,0,0,0,0,0,0,0,0,0],"id":47,"left_children":[1,3,5,7,9,11,13,15,17,19,-1,21,23,25,27,-1,-1,-1,-1,-1,-1,-1,-1,-1,-1,-1,-1,-1,-1],"loss_changes":[1.8370613E3,1.9614026E2,6.2533417E2,7.231299E1,8.987149E1,2.4649684E2,3.0631372E2,6.657776E1,6.596606E1,8.246973E1,0E0,1.9314702E2,9.197012E1,1.6902716E2,6.514639E2,0E0,0E0,0E0,0E0,0E0,0E0,0E0,0E0,0E0,0E0,0E0,0E0,0E0,0E0],"parents":[2147483647,0,0,1,1,2,2,3,3,4,4,5,5,6,6,7,7,8,8,9,9,11,11,12,12,13,13,14,14],"right_children":[2,4,6,8,10,12,14,16,18,20,-1,22,24,26,28,-1,-1,-1,-1,-1,-1,-1,-1,-1,-1,-1,-1,-1,-1],"split_conditions":[3.225E1,1.737E1,5.278E1,1.8E1,2.2864609E2,5.517E1,1.9699521E2,1.05E1,1.648E1,3.545E1,-5.548044E-1,3.173E1,3.933E1,4.606E1,2.6E1,-3.544137E-2,-1.5792068E-2,-2.1981154E-2,-2.8675047E-1,-7.3852018E-3,-2.4189949E-1,2.669526E-1,4.277266E-3,-8.31398E-2,-8.147158E-1,7.7150077E-1,2.0738563E-2,3.7875384E-2,3.3949113E-1],"split_indices":[7,7,7,6,11,6,11,7,8,6,0,6,7,8,1,0,0,0,0,0,0,0,0,0,0,0,0,0,0],"split_type":[0,0,0,0,0,0,0,0,0,0,0,0,0,0,0,0,0,0,0,0,0,0,0,0,0,0,0,0,0],"sum_hessian":[2.33619E5,9.4172E4,1.39447E5,3.2801E4,6.1371E4,1.16535E5,2.2912E4,3.2764E4,3.7E1,6.1369E4,2E0,1.16528E5,7E0,2.2517E4,3.95E2,1.826E3,3.0938E4,1.9E1,1.8E1,6.1355E4,1.4E1,2.7E1,1.16501E5,3E0,4E0,2E0,2.2515E4,3.02E2,9.3E1],"tree_param":{"num_deleted":"0","num_feature":"14","num_nodes":"29","size_leaf_vector":"1"}},{"base_weights":[3.0397557E-4,-5.819917E-2,1.0997142E-1,-1.09395325E-1,-5.0466377E-3,1.11969106E-1,-2.8376317E0,-1.107146E-1,3.0873816E0,2.3340507E0,-6.1125895E-3,1.0572891E-1,9.996536E-1,4.234424E0,-5.8475633E0,-1.7954059E-2,-9.359314E-3,5.500253E-1,-4.8387638E-1,-8.973265E-3,4.2522866E-1,-4.6442644E-4,-2.152454E-1,8.957096E-3,3.6477365E-2,-8.3952986E-2,1.17559075E-1,9.75544E-3,8.8762087E-1,-9.7189504E-1,-3.2908282E-1],"categories":[],"categories_nodes":[],"categories_segments":[],"categories_sizes":[],"default_left":[0,0,0,0,0,0,0,0,0,0,0,0,0,0,0,0,0,0,0,0,0,0,0,0,0,0,0,0,0,0,0],"id":48,"left_children":[1,3,5,7,9,11,13,15,17,19,21,23,25,27,29,-1,-1,-1,-1,-1,-1,-1,-1,-1,-1,-1,-1,-1,-1,-1,-1],"loss_changes":[1.4966732E3,4.1396008E2,4.7817157E2,3.27143E2,1.8611153E2,4.4912207E2,1.1955132E3,9.125867E1,6.38607E2,1.5846077E2,2.3510654E2,3.3704877E2,1.8413367E2,3.255758E2,3.5404285E2,0E0,0E0,0E0,0E0,0E0,0E0,0E0,0E0,0E0,0E0,0E0,0E0,0E0,0E0,0E0,0E0],"parents":[2147483647,0,0,1,1,2,2,3,3,4,4,5,5,6,6,7,7,8,8,9,9,10,10,11,11,12,12,13,13,14,14],"right_children":[2,4,6,8,10,12,14,16,18,20,22,24,26,28,30,-1,-1,-1,-1,-1,-1,-1,-1,-1,-1,-1,-1,-1,-1,-1,-1],"split_conditions":[4.118E1,2.787E1,7.9616604E0,7.9616604E0,2.471E1,1.4895637E0,1.426E3,1.46E1,2.9586666E1,3.7412298E0,6.420135E0,6.614E1,9.320296E1,4.888E1,1E0,-1.7954059E-2,-9.359314E-3,5.500253E-1,-4.8387638E-1,-8.973265E-3,4.2522866E-1,-4.6442644E-4,-2.152454E-1,8.957096E-3,3.6477365E-2,-8.3952986E-2,1.17559075E-1,9.75544E-3,8.8762087E-1,-9.7189504E-1,-3.2908282E-1],"split_indices":[6,6,9,9,8,9,13,6,8,9,9,8,11,6,2,0,0,0,0,0,0,0,0,0,0,0,0,0,0,0,0],"split_type":[0,0,0,0,0,0,0,0,0,0,0,0,0,0,0,0,0,0,0,0,0,0,0,0,0,0,0,0,0,0,0],"sum_hessian":[2.33274E5,1.52123E5,8.1151E4,7.7487E4,7.4636E4,8.1097E4,5.4E1,7.7456E4,3.1E1,3.3E1,7.4603E4,8.0532E4,5.65E2,1.6E1,3.8E1,1.5428E4,6.2028E4,2.4E1,7E0,1.5E1,1.8E1,7.4553E4,5E1,7.5805E4,4.727E3,4.9E1,5.16E2,9E0,7E0,1.4E1,2.4E1],"tree_param":{"num_deleted":"0","num_feature":"14","num_nodes":"31","size_leaf_vector":"1"}},{"base_weights":[-3.4243386E-4,-4.7388874E-2,1.1489413E-1,-1.056878E-1,-3.7656697E-3,1.1392624E-1,4.205582E-1,-1.04544595E-1,-1.4126153E0,-2.7889512E-3,-1.6013764E0,9.6690945E-2,3.1074294E-1,-1.0517503E-2,2.2552967E-1,-3.424905E-1,-3.728369E-2,1.3211374E-1,-3.7245292E-4,2.1771931E-4,-5.468899E-1,